\data\
ngram 1=86
ngram 2=1442
ngram 3=9270
ngram 4=28290
ngram 5=61269

\1-grams:
-3.04897	<unk>	0
0	<s>	-2.021505
-1.5702653	</s>	0
-1.6175328	ọ	-0.9446225
-1.6175328	r	-0.97682333
-1.3542247	$	-1.2088706
-1.6566988	ì	-0.8115864
-1.6432471	y	-0.87213707
-1.5816087	à	-0.9313546
-1.6301997	n	-0.8464341
-1.782603	j	-0.97703195
-1.8207432	ù	-0.63488984
-1.5816087	o	-0.8971269
-1.6432471	d	-0.9595902
-1.6175328	ò	-0.7651664
-1.6301997	t	-0.88811946
-1.6432471	b	-0.92211145
-1.5816087	a	-0.93329895
-1.6705804	g	-0.7919873
-1.6301997	e	-0.76814127
-1.5379112	i	-0.90801215
-1.6175328	s	-0.8956609
-1.6301997	u	-0.7175858
-1.6301997	ẹ	-0.9257122
-1.5702653	l	-0.98255444
-1.6705804	m	-0.7836499
-1.8012546	é	-0.71596205
-1.7310212	á	-0.8579484
-1.6301997	k	-1.0283598
-1.7310212	ó	-0.7239358
-1.782603	è	-0.7402096
-1.7475436	f	-0.7651284
-1.7151043	w	-0.9083384
-1.7151043	í	-0.72816926
-1.7151043	p	-0.8302246
-1.8012546	ṣ	-0.8587303
-1.7310212	ú	-0.69216824
-1.7310212	h	-0.6631351
-1.8207432	-	-0.7672224
-2.0875165	c	-0.398905
-2.5805283	v	-0.30682713
-2.5805283	z	-0.26184314
-2.713636	ί	-0.40887392
-2.9065406	ὸ	-0.22425483
-2.396419	!	-0.47765487
-2.396419	ń	-0.28193212
-2.9065406	–	-0.22425483
-2.5805283	ǹ	-0.26976758
-2.9065406	ḿ	-0.22425483
-2.9065406	x	-0.22425483
-1.9890488	;	-0.9288914
-2.713636	̣	-0.22425483
-2.0521545	:	-0.6822191
-1.7310212	’	-0.4923576
-2.713636	“	-0.32580256
-1.8625582	”	-1.034415
-1.9606316	/	-0.4093315
-2.7994645	&	-0.22425483
-2.9065406	"	-0.22425483
-2.4787898	1	-0.35271615
-2.5805283	8	-0.2940257
-2.396419	2	-0.2940257
-2.2150636	0	-0.50281733
-2.4787898	6	-0.40887392
-2.4787898	9	-0.26976758
-2.4787898	4	-0.3318702
-2.713636	‘	-0.22425483
-2.7994645	ị	-0.22425483
-2.7994645	7	-0.22425483
-2.9065406	q	-0.22425483
-2.713636	…	-0.30299562
-2.9065406	(	-0.22425483
-2.7994645	3	-0.22425483
-1.8850793	)	-0.9300336
-2.9065406		-0.22425483
-2.9065406	5	-0.22425483
-2.9065406	*	-0.22425483
-2.713636	?	-0.28193212
-2.9065406	̃	-0.22425483
-2.3272083	ã	-0.31686714
-2.7994645	õ	-0.22425483
-2.9065406	͂	-0.22425483
-2.2675261	̩	-0.49371484
-2.2150636	‐	-0.31182224
-2.9065406	̄	-0.22425483
-2.9065406	−	-0.22425483

\2-grams:
-1.3047725	<s> </s>	0
-1.2545264	ọ </s>	0
-2.38184	r </s>	0
-1.3160517	ì </s>	0
-2.2260635	y </s>	0
-1.3182834	à </s>	0
-1.4943944	n </s>	0
-2.3140297	j </s>	0
-1.015846	ù </s>	0
-1.3177457	o </s>	0
-2.1107073	d </s>	0
-1.2831094	ò </s>	0
-2.2792616	t </s>	0
-2.3117573	b </s>	0
-1.2422613	a </s>	0
-1.2411989	e </s>	0
-1.3588971	i </s>	0
-1.3078804	u </s>	0
-1.2259414	ẹ </s>	0
-2.369359	l </s>	0
-2.1718943	m </s>	0
-1.1471431	é </s>	0
-1.2624677	á </s>	0
-2.188767	k </s>	0
-1.1149985	ó </s>	0
-1.228683	è </s>	0
-1.2720295	í </s>	0
-1.1230055	ú </s>	0
-0.31186095	! </s>	0
-1.5220675	; </s>	0
-0.94604367	: </s>	0
-0.92655236	’ </s>	0
-0.46837786	” </s>	0
-1.1470046	8 </s>	0
-1.1540099	4 </s>	0
-0.62643796	) </s>	0
-0.37740767	5 </s>	0
-0.53772366	? </s>	0
-1.5381763	̩ </s>	0
-1.0716032	<s> ọ	-1.1227779
-1.4598331	ọ ọ	-0.3409682
-1.2937057	r ọ	-0.40903664
-1.5476849	$ ọ	-0.8378397
-2.2411282	ì ọ	-0.23989381
-1.079983	y ọ	-0.3952253
-1.9663671	n ọ	-0.2166898
-0.99271023	j ọ	-0.39145234
-1.4354463	d ọ	-0.26527852
-2.215294	ò ọ	-0.23989381
-1.1646199	t ọ	-0.3557697
-1.141794	b ọ	-0.3921207
-1.4929622	g ọ	-0.30174327
-2.2384994	e ọ	-0.23989381
-2.3808105	i ọ	-0.23989381
-1.2320427	s ọ	-0.39760685
-2.1411874	u ọ	-0.23989381
-2.3835404	ẹ ọ	-0.23989381
-1.1942673	l ọ	-0.37440726
-0.8903804	m ọ	-0.45070893
-2.1615906	é ọ	-0.23989381
-1.1564531	k ọ	-0.44163018
-2.1774943	ó ọ	-0.23989381
-1.1359264	f ọ	-0.32301602
-1.0108662	w ọ	-0.4704188
-1.7339723	í ọ	-0.24697554
-1.0585697	p ọ	-0.5686909
-1.1162564	ṣ ọ	-0.2592346
-1.9200865	ú ọ	-0.23989381
-1.9982067	h ọ	-0.23989381
-1.1371031	- ọ	-0.22142622
-1.1421921	’ ọ	-0.24578722
-1.3762823	“ ọ	-0.24776956
-1.3427601	‘ ọ	-0.23989381
-1.4850869	( ọ	-0.23989381
-2.5678327	<s> r	-0.23864006
-1.1925628	ọ r	-0.53080654
-2.4135847	r r	-0.23989381
-1.6605886	$ r	-0.744583
-1.2767737	ì r	-0.26646885
-1.2405745	à r	-0.28622252
-1.4997836	n r	-0.32080314
-1.5009468	ù r	-0.25176165
-1.1212764	o r	-0.4922281
-2.128112	d r	-0.23989381
-1.2482522	ò r	-0.30664647
-1.9514676	t r	-0.2166898
-1.8376805	b r	-0.30798745
-1.2233331	a r	-0.40625623
-1.8357799	g r	-0.25176167
-1.1344627	e r	-0.32979032
-1.258725	i r	-0.3853128
-1.2104954	u r	-0.27056783
-1.2057723	ẹ r	-0.5093073
-1.1173906	é r	-0.37943104
-1.206248	á r	-0.33905813
-2.4311452	k r	-0.23989381
-1.3455873	ó r	-0.30272174
-1.0804065	è r	-0.40185332
-1.8940133	f r	-0.25781947
-1.1693318	í r	-0.32180193
-2.221065	p r	-0.23989381
-1.1262665	ú r	-0.25657278
-1.4190457	- r	-0.23449066
-1.2834183	c r	-0.23989381
-1.5315114	ń r	-0.23989381
-1.6459514	“ r	-0.23989381
-1.4850869	( r	-0.23989381
-1.2072939	ã r	-0.23989381
-1.2984846	̩ r	-0.24533103
-1.2177393	ọ $	-0.80060387
-1.8574923	r $	-0.24381386
-0.99578387	ì $	-0.57179976
-1.4703631	y $	-0.23294525
-1.0503945	à $	-0.81424314
-1.2999222	n $	-0.7371701
-2.1751966	j $	-0.23989381
-0.8347339	ù $	-0.52150273
-1.1474278	o $	-0.70892537
-1.5199634	d $	-0.2339311
-1.0510985	ò $	-0.66751415
-1.8606131	t $	-0.23989381
-1.8920199	b $	-0.23989381
-1.116293	a $	-0.85629314
-1.8666383	g $	-0.23989381
-1.0302857	e $	-0.65380555
-1.1975741	i $	-0.80817187
-1.5105721	s $	-0.24776956
-0.93160796	u $	-0.58935857
-1.1120045	ẹ $	-0.81782615
-1.6530206	l $	-0.23989381
-1.751142	m $	-0.24776956
-0.9661111	é $	-0.6535064
-1.01444	á $	-0.7527654
-1.747852	k $	-0.23989381
-0.8800069	ó $	-0.64584047
-1.0042495	è $	-0.5478622
-1.6597013	f $	-0.23989381
-1.9332166	w $	-0.23989381
-0.95513916	í $	-0.6539443
-1.625433	p $	-0.23989381
-0.980206	ú $	-0.6073926
-1.3635455	h $	-0.23989381
-1.5748826	- $	-0.24876414
-1.479291	c $	-0.23989381
-1.0503961	v $	-0.23989381
-1.0389318	z $	-0.23989381
-0.20259449	ί $	-0.23989381
-0.36682466	ὸ $	-0.23989381
-0.816276	! $	-0.23989381
-1.3988411	ń $	-0.23989381
-0.79362416	– $	-0.23989381
-0.9811672	ǹ $	-0.23989381
-0.06523257	; $	-0.25804204
-0.8954321	̣ $	-0.23989381
-0.18960337	: $	-0.33487406
-0.66773325	’ $	-0.2648365
-0.30137017	” $	-0.38868433
-0.8259415	/ $	-0.30798745
-0.6419653	& $	-0.23989381
-0.36682466	" $	-0.23989381
-1.0964	8 $	-0.23989381
-1.4077636	0 $	-0.23989381
-0.49183828	6 $	-0.2018818
-0.87252355	9 $	-0.23989381
-0.54974055	4 $	-0.23989381
-1.2409432	‘ $	-0.23989381
-0.6419653	ị $	-0.23989381
-0.19491376	) $	-0.26967195
-0.36682466	* $	-0.23989381
-0.90678483	? $	-0.23989381
-0.8954321	̃ $	-0.23989381
-0.6019641	ã $	-0.23989381
-1.1684029	̩ $	-0.41309762
-1.219299	<s> ì	-0.8852275
-1.3887128	r ì	-0.4090222
-1.5023918	$ ì	-0.88442475
-2.266127	ì ì	-0.23989381
-1.1128329	y ì	-0.49722415
-1.7384226	à ì	-0.26536041
-1.5415423	n ì	-0.2829762
-1.1773524	j ì	-0.43329513
-2.177932	o ì	-0.23989381
-1.3053452	d ì	-0.32357216
-1.4822819	t ì	-0.33274513
-1.5122424	b ì	-0.30414575
-2.4283657	a ì	-0.23989381
-1.8458905	g ì	-0.23989381
-1.1467246	s ì	-0.46926665
-2.4102745	ẹ ì	-0.23989381
-1.5932447	m ì	-0.21874876
-2.3318136	á ì	-0.23989381
-1.3183051	k ì	-0.30831242
-1.381753	f ì	-0.24776956
-1.7300106	w ì	-0.24697554
-1.6384912	í ì	-0.24697554
-1.843183	p ì	-0.23989381
-1.5386641	ṣ ì	-0.23381993
-1.5755779	h ì	-0.2018818
-1.3215067	- ì	-0.23129784
-1.3865516	“ ì	-0.24876414
-1.3312429	/ ì	-0.23989381
-1.3547951	‘ ì	-0.23989381
-1.5018804	( ì	-0.23989381
-1.9372678	̩ ì	-0.23989381
-1.0760045	‐ ì	-0.24697554
-1.4695673	<s> y	-1.2347294
-1.5904068	ọ y	-0.220197
-2.2223723	r y	-0.25781947
-1.5490011	$ y	-0.8118935
-1.2785354	ì y	-0.36442798
-1.2671342	à y	-0.34486085
-1.5400523	n y	-0.24918057
-2.0471702	ù y	-0.23989381
-1.7053081	o y	-0.22610599
-2.371706	d y	-0.23989381
-1.4939263	ò y	-0.24858713
-2.326182	t y	-0.23989381
-1.3727143	a y	-0.35710484
-2.2197254	g y	-0.23989381
-1.6242652	e y	-0.2648365
-1.3356184	i y	-0.4180336
-1.9402139	u y	-0.23989381
-1.433427	ẹ y	-0.40695652
-2.4157872	l y	-0.23989381
-2.2184854	m y	-0.23989381
-1.3713188	é y	-0.23065351
-1.3001851	á y	-0.37990767
-1.5328567	ó y	-0.25083715
-1.4715135	è y	-0.23864006
-1.3683279	í y	-0.23890844
-1.5327176	ú y	-0.25417468
-2.0279782	- y	-0.23989381
-1.609292	c y	-0.23989381
-1.5423466	ń y	-0.23989381
-1.3287342	/ y	-0.23989381
-1.4962101	( y	-0.23989381
-1.3023442	̩ y	-0.22047201
-1.5650709	‐ y	-0.23989381
-1.0859219	<s> à	-1.0025281
-2.3802128	ọ à	-0.23989381
-1.2918355	r à	-0.44120815
-1.4565582	$ à	-0.8730358
-2.2174902	ì à	-0.23989381
-0.9965397	y à	-0.46296018
-1.5978407	à à	-0.24141866
-1.4616903	n à	-0.4699876
-1.208225	j à	-0.4461759
-2.0099049	ù à	-0.23989381
-1.2006195	d à	-0.35747132
-2.1905406	ò à	-0.23989381
-1.1916882	t à	-0.38854748
-1.1162869	b à	-0.37648278
-2.205761	a à	-0.25176167
-1.416538	g à	-0.31625706
-2.3547697	i à	-0.23989381
-1.3813602	s à	-0.34728068
-2.1178622	u à	-0.23989381
-2.358357	ẹ à	-0.23989381
-1.4133761	l à	-0.33719358
-1.5817419	m à	-0.22919263
-1.4125865	á à	-0.2732566
-1.2022004	k à	-0.44097978
-1.3006297	f à	-0.2675567
-1.123124	w à	-0.35367543
-1.5422304	í à	-0.25994396
-1.2411773	p à	-0.23781665
-1.1986718	ṣ à	-0.39080632
-1.9050782	ú à	-0.23989381
-1.1243908	h à	-0.40219727
-1.3150793	- à	-0.31592456
-1.3008463	’ à	-0.23989381
-1.3662502	“ à	-0.23989381
-1.3310496	‘ à	-0.23989381
-1.4689187	( à	-0.23989381
-1.889782	̩ à	-0.23989381
-1.538896	‐ à	-0.23989381
-1.0345708	<s> n	-1.745074
-1.2814374	ọ n	-0.36591002
-1.9322118	r n	-0.23989381
-1.4865702	$ n	-0.71179765
-1.0821531	ì n	-0.35188732
-1.2664821	à n	-0.32968572
-1.5795255	n n	-0.3080051
-0.94324005	ù n	-0.3732018
-1.1638113	o n	-0.37641755
-1.4315853	ò n	-0.22327992
-2.1340432	b n	-0.23989381
-1.1840138	a n	-0.4572312
-1.3521448	e n	-0.39419147
-1.1570799	i n	-0.44853115
-0.87803304	u n	-0.4248372
-1.2063466	ẹ n	-0.69892186
-2.2103646	m n	-0.23989381
-1.5866632	é n	-0.24578722
-1.154686	á n	-0.33561185
-1.3999834	ó n	-0.25804204
-1.4698943	è n	-0.22951214
-1.0842781	í n	-0.32739398
-2.2285364	p n	-0.23989381
-0.8771465	ú n	-0.39577866
-2.0047708	h n	-0.23989381
-1.7427163	- n	-0.2166898
-1.5368952	ń n	-0.23989381
-1.4865181	’ n	-0.23989381
-1.652292	“ n	-0.23989381
-0.66627324	& n	-0.23989381
-1.490613	( n	-0.23989381
-1.2096403	ã n	-0.23989381
-1.30041	̩ n	-0.21788023
-1.2551866	‐ n	-0.23989381
-2.6233177	<s> j	-0.22003205
-1.3408462	ọ j	-0.4096567
-1.5225163	$ j	-0.81199396
-1.3799171	ì j	-0.2572695
-1.4306968	à j	-0.25348845
-1.5149586	n j	-0.2901509
-1.685893	ù j	-0.24430634
-1.2422487	o j	-0.48057783
-1.5086895	ò j	-0.2732566
-1.3512694	a j	-0.332269
-1.3638577	e j	-0.33072996
-1.3718466	i j	-0.3183221
-1.6692231	u j	-0.23989381
-1.442241	ẹ j	-0.38741586
-1.4468254	é j	-0.23231901
-1.3841001	á j	-0.27578938
-1.4145081	ó j	-0.25798962
-1.4115455	è j	-0.25056016
-1.3803285	í j	-0.2465259
-1.9800322	ú j	-0.25781947
-1.4341664	- j	-0.33719358
-1.594757	ń j	-0.23989381
-1.8393642	’ j	-0.23989381
-1.32015	̩ j	-0.25004625
-3.6101913	<s> ù	-0.23989381
-2.5366771	ọ ù	-0.23989381
-1.2744414	r ù	-0.48934743
-2.8632476	$ ù	-0.23989381
-1.6470057	n ù	-0.39612332
-1.4468186	j ù	-0.3477044
-1.2749678	d ù	-0.41776457
-2.3426476	ò ù	-0.23989381
-1.6339178	t ù	-0.2669812
-1.2967927	b ù	-0.25823918
-1.181961	g ù	-0.7229608
-1.274638	s ù	-0.43568042
-2.2778769	ẹ ù	-0.25781947
-1.3492315	l ù	-0.29652187
-1.4461176	m ù	-0.42434376
-1.2354263	k ù	-0.5922295
-1.7723567	f ù	-0.24876414
-1.2884303	w ù	-0.22715119
-1.4593472	ṣ ù	-0.22804913
-1.6710775	ú ù	-0.23989381
-0.964975	h ù	-0.4099112
-2.0301628	̩ ù	-0.23989381
-1.2917887	<s> o	-0.91178477
-2.3802128	ọ o	-0.23989381
-1.1511104	r o	-0.3438269
-1.4842929	$ o	-0.8376737
-1.3117865	y o	-0.40340722
-2.1800795	n o	-0.23989381
-1.2447959	j o	-0.2957558
-1.467412	o o	-0.26046038
-1.2651191	d o	-0.29588947
-2.1905406	ò o	-0.23989381
-1.3737776	t o	-0.2531958
-1.4037101	b o	-0.33076862
-2.205761	a o	-0.25176167
-1.3548611	g o	-0.30414575
-1.9208336	e o	-0.23989381
-1.6928236	i o	-0.22951214
-1.2300868	s o	-0.32879725
-2.358357	ẹ o	-0.23989381
-1.2452586	l o	-0.38281503
-1.3093208	m o	-0.22576207
-1.9506052	é o	-0.23989381
-1.2022004	k o	-0.41292804
-1.9720107	ó o	-0.25781947
-1.1338096	f o	-0.29194
-1.123124	w o	-0.4378782
-1.1579564	p o	-0.37747514
-1.4405487	ṣ o	-0.23890844
-2.100954	ú o	-0.23989381
-1.1993523	h o	-0.22319394
-1.1983647	- o	-0.28055352
-1.2765474	c o	-0.25781947
-1.7544811	’ o	-0.23989381
-1.3662502	“ o	-0.24430634
-1.3164028	/ o	-0.23989381
-1.3310496	‘ o	-0.23989381
-1.4689187	( o	-0.23989381
-1.889782	̩ o	-0.23989381
-1.244739	‐ o	-0.25781947
-2.1263022	<s> d	-0.4298393
-1.3627204	ọ d	-0.405438
-2.4303718	r d	-0.23989381
-1.6211588	$ d	-0.7803936
-1.48601	ì d	-0.27311537
-1.3227104	à d	-0.28320038
-1.5025036	n d	-0.29588076
-1.6564318	ù d	-0.24578722
-1.3555567	o d	-0.2482525
-1.2500881	ò d	-0.32921457
-1.3175002	a d	-0.36801398
-2.2197254	g d	-0.23989381
-1.442498	e d	-0.35559222
-1.5432022	i d	-0.35559222
-1.3770752	u d	-0.21418644
-1.3977654	ẹ d	-0.26112315
-2.4157872	l d	-0.23989381
-1.2700112	é d	-0.25672027
-1.5191871	á d	-0.23011598
-1.6173121	ó d	-0.24776956
-1.3990108	è d	-0.36781484
-1.8772644	í d	-0.24430634
-1.6406126	ú d	-0.23989381
-1.277441	- d	-0.3027819
-1.2376399	ń d	-0.23989381
-1.6587267	“ d	-0.23989381
-1.6426911	/ d	-0.23989381
-1.3507463	‘ d	-0.23989381
-1.4962101	( d	-0.23989381
-0.94158846	̃ d	-0.23989381
-1.2119995	ã d	-0.23989381
-0.66710746	͂ d	-0.23989381
-1.3023442	̩ d	-0.22047201
-1.5354105	<s> ò	-0.8244125
-1.2667408	r ò	-0.3973384
-1.5645795	$ ò	-0.7420803
-2.0169706	y ò	-0.23989381
-2.3481271	n ò	-0.23989381
-1.37994	j ò	-0.30801
-1.7851115	o ò	-0.21418644
-1.3868103	d ò	-0.371534
-1.6450377	ò ò	-0.24430634
-1.2938807	t ò	-0.2949082
-1.4064574	b ò	-0.3025606
-1.4929622	g ò	-0.28118593
-2.3808105	i ò	-0.23989381
-2.105433	s ò	-0.23989381
-2.3835404	ẹ ò	-0.23989381
-1.1701577	l ò	-0.35803318
-1.5874553	m ò	-0.25004625
-2.1615906	é ò	-0.23989381
-1.1346906	k ò	-0.39378524
-1.8527424	ó ò	-0.24578722
-2.1635344	è ò	-0.23989381
-1.4677068	f ò	-0.2874188
-1.1950352	w ò	-0.34755966
-2.187218	í ò	-0.23989381
-1.1996868	p ò	-0.39196146
-1.5343616	ṣ ò	-0.2764206
-1.9982067	h ò	-0.23989381
-1.3657476	- ò	-0.25672027
-0.8272998	– ò	-0.23989381
-1.7713257	’ ò	-0.23989381
-1.3762823	“ ò	-0.24697554
-0.75462013	/ ò	-0.36281782
-1.4850869	( ò	-0.23989381
-1.9128762	̩ ò	-0.23989381
-1.5544108	‐ ò	-0.23989381
-1.9112341	<s> t	-0.6528038
-1.4995114	ọ t	-0.2851616
-2.2171032	r t	-0.23989381
-1.4199727	$ t	-0.8157334
-1.42291	ì t	-0.25565776
-1.3855991	à t	-0.32785332
-1.5795255	n t	-0.25804204
-1.5031649	ù t	-0.24697554
-1.8917909	o t	-0.24876414
-1.890639	ò t	-0.25176165
-2.3180013	t t	-0.23989381
-1.551213	a t	-0.3102724
-1.5530375	e t	-0.23546802
-1.5419039	i t	-0.3200709
-1.5494915	s t	-0.24876414
-1.6430823	u t	-0.23989381
-1.3968734	ẹ t	-0.3871687
-1.3699589	é t	-0.24309847
-1.464446	á t	-0.250132
-1.5309213	ó t	-0.23449066
-1.4698943	è t	-0.23156874
-2.2873864	w t	-0.23989381
-1.5501535	í t	-0.2526219
-1.993465	p t	-0.23989381
-1.7807913	ú t	-0.23989381
-1.6371657	- t	-0.24381386
-1.6044306	c t	-0.23989381
-1.2349286	ń t	-0.23989381
-1.0303363	ǹ t	-0.23989381
-1.2763662	9 t	-0.23989381
-1.490613	( t	-0.23989381
-0.9400204	̃ t	-0.23989381
-0.66627324	õ t	-0.23989381
-1.5551872	̩ t	-0.22047201
-1.2473178	<s> b	-1.231845
-1.3341484	ọ b	-0.4168439
-1.5018001	$ b	-0.80382663
-1.5581787	ì b	-0.24627419
-1.4222214	à b	-0.26626927
-1.5811574	n b	-0.2699774
-1.5053943	ù b	-0.22951214
-1.5205226	o b	-0.30801
-1.8946784	ò b	-0.24430634
-2.3585074	b b	-0.23989381
-1.3442304	a b	-0.29809636
-0.79433435	g b	-0.7453221
-1.5548768	e b	-0.26142475
-1.3356184	i b	-0.34612098
-2.33374	s b	-0.23989381
-1.2123734	u b	-0.22487402
-1.3977654	ẹ b	-0.37879366
-1.5913062	m b	-0.2737209
-1.5036873	é b	-0.24776956
-1.4180207	á b	-0.24395315
-1.7222553	ó b	-0.23989381
-1.6676303	è b	-0.21107745
-1.3683279	í b	-0.28604105
-1.5327176	ú b	-0.22524668
-1.6394038	- b	-0.25056016
-1.5423466	ń b	-0.23989381
-0.37998644	ḿ b	-0.23989381
-1.3831015	“ b	-0.24876414
-1.6426911	/ b	-0.23989381
-1.4962101	( b	-0.23989381
-0.94158846	̃ b	-0.23989381
-1.4118649	̩ b	-0.23989381
-1.5650709	‐ b	-0.23989381
-1.2012724	<s> a	-0.97050714
-2.3802128	ọ a	-0.23989381
-1.1716206	r a	-0.43447316
-1.4433279	$ a	-0.81454813
-1.1096989	y a	-0.36146268
-2.0452607	à a	-0.25176167
-1.573058	n a	-0.33020487
-1.2447959	j a	-0.32401317
-2.3254838	o a	-0.23989381
-1.231673	d a	-0.41292804
-1.0865247	t a	-0.42472
-1.0719137	b a	-0.38696998
-1.4662815	a a	-0.32064357
-1.209609	g a	-0.38524652
-1.9208336	e a	-0.23989381
-1.7604232	i a	-0.31738204
-1.2632562	s a	-0.43021148
-1.6330512	u a	-0.24876414
-1.2182369	l a	-0.3466668
-1.3631086	m a	-0.26963592
-1.8278646	á a	-0.25004625
-1.0931371	k a	-0.6090175
-1.1338096	f a	-0.33719358
-1.0918796	w a	-0.46323502
-2.1619656	í a	-0.23989381
-0.97521454	p a	-0.4215789
-1.2477039	ṣ a	-0.39035434
-0.9111069	h a	-0.26172784
-1.3621774	- a	-0.2887978
-1.092389	c a	-0.24430634
-1.0961065	v a	-0.23989381
-1.0885274	z a	-0.23989381
-0.8236925	– a	-0.23989381
-0.37783644	x a	-0.23989381
-1.1992488	“ a	-0.23583513
-1.6176548	/ a	-0.23989381
-1.3310496	‘ a	-0.23989381
-1.244739	‐ a	-0.23989381
-1.4762361	<s> g	-1.2465521
-1.3643007	ọ g	-0.48204356
-2.2331061	r g	-0.23989381
-1.5850129	$ g	-0.69100606
-1.4266177	ì g	-0.43610004
-1.3241962	à g	-0.44442195
-1.4704716	n g	-0.3721403
-1.3075095	ù g	-0.5029118
-1.3572911	o g	-0.45701364
-1.4357971	ò g	-0.30027306
-2.3752804	b g	-0.23989381
-1.3189616	a g	-0.36255854
-1.4982864	e g	-0.23874442
-1.4646428	i g	-0.44076383
-1.5406128	u g	-0.24494037
-1.2800906	ẹ g	-0.46533787
-2.4324358	l g	-0.23989381
-1.3740513	é g	-0.36354935
-1.3770766	á g	-0.35649917
-1.3029268	ó g	-0.23948924
-1.5625777	è g	-0.30258143
-1.4853069	í g	-0.33233842
-1.4497981	ú g	-0.29587102
-1.5578618	- g	-0.5029118
-1.2431136	ń g	-0.24697554
-0.6342049	ǹ g	-0.23989381
-1.3900294	“ g	-0.23989381
-1.5076258	( g	-0.23989381
-0.6687806	 g	-0.23989381
-1.4168825	̩ g	-0.2166898
-0.6687806	̄ g	-0.23989381
-1.4444292	<s> e	-0.92682546
-1.3231244	r e	-0.3758595
-1.5652632	$ e	-0.6106843
-1.1821339	y e	-0.43067223
-1.8758023	n e	-0.24578722
-1.4362867	j e	-0.3131016
-1.2339329	d e	-0.4466551
-1.7010776	t e	-0.22684996
-1.5719541	b e	-0.24096572
-2.4099298	a e	-0.23989381
-1.2563393	g e	-0.2764206
-1.4934595	e e	-0.24776956
-1.9519352	i e	-0.24697554
-1.3850621	s e	-0.41873544
-1.9352142	u e	-0.23989381
-1.2474701	l e	-0.3845629
-1.2651017	m e	-0.24141866
-2.1700761	é e	-0.23989381
-1.4705288	k e	-0.34421727
-2.1715913	è e	-0.23989381
-1.1956185	w e	-0.46406394
-1.2003925	p e	-0.28044534
-0.8416796	ṣ e	-0.4092106
-2.132986	ú e	-0.23989381
-1.2951406	h e	-0.22813688
-1.8824495	- e	-0.23989381
-1.098378	c e	-0.23989381
-0.49958128	v e	-0.24697554
-1.0966864	z e	-0.23989381
-1.7770889	’ e	-0.23989381
-1.3262397	/ e	-0.23989381
-1.3467348	‘ e	-0.23989381
-1.7038097	̩ e	-0.24381386
-1.2551866	‐ e	-0.25781947
-1.3486629	<s> i	-0.797249
-2.1839516	ọ i	-0.25781947
-1.0760531	r i	-0.46963096
-1.5114954	$ i	-0.8713878
-2.1878502	ì i	-0.23989381
-1.107622	y i	-0.43323147
-2.1563418	à i	-0.23989381
-1.1966803	n i	-0.41657263
-1.2425699	j i	-0.36974892
-2.294326	o i	-0.23989381
-1.1985261	d i	-0.37613449
-1.0619795	t i	-0.37230617
-1.0917498	b i	-0.46883526
-1.7630134	a i	-0.2618485
-1.4114926	g i	-0.25958917
-2.1803086	e i	-0.23989381
-1.9260631	i i	-0.23989381
-1.0275317	s i	-0.48327345
-1.7604986	u i	-0.23989381
-2.326901	ẹ i	-0.23989381
-1.4529347	l i	-0.26300657
-1.0481235	m i	-0.40435532
-2.1064246	é i	-0.23989381
-2.0758235	á i	-0.23989381
-1.2528348	k i	-0.37414822
-2.1213746	ó i	-0.23989381
-0.9178073	f i	-0.4603091
-1.5126805	w i	-0.27641097
-1.8406444	í i	-0.23989381
-1.1554017	p i	-0.45633936
-1.1522437	ṣ i	-0.36448574
-2.0711236	ú i	-0.23989381
-1.1209203	h i	-0.23614602
-1.2303809	- i	-0.30210885
-1.5673814	c i	-0.23989381
-1.0887533	v i	-0.23989381
-1.0805188	z i	-0.23989381
-1.3532245	“ i	-0.24494037
-1.3067837	/ i	-0.23989381
-1.315911	‘ i	-0.23989381
-1.4482567	( i	-0.23989381
-1.860784	̩ i	-0.23989381
-2.460864	<s> s	-0.2619674
-1.4243866	ọ s	-0.30450448
-2.2118974	r s	-0.23989381
-1.4581593	$ s	-0.73833334
-1.4216809	ì s	-0.24865453
-2.2541685	y s	-0.23989381
-1.5017736	à s	-0.2367679
-1.5778996	n s	-0.24110575
-1.6501477	ù s	-0.24697554
-1.5179992	o s	-0.25004625
-1.4301904	ò s	-0.26887164
-2.3099718	t s	-0.23989381
-2.3423584	b s	-0.23989381
-1.5966648	a s	-0.25292432
-2.2038894	g s	-0.23989381
-1.4918623	e s	-0.2669812
-1.3623127	i s	-0.2745067
-2.3175294	s s	-0.23989381
-1.2104954	u s	-0.23614602
-1.30413	ẹ s	-0.3837759
-2.184515	l s	-0.23989381
-1.9881877	m s	-0.25781947
-1.6893281	é s	-0.24776956
-1.5770786	á s	-0.24697554
-1.9883089	ó s	-0.23989381
-1.3345248	è s	-0.28360674
-2.2802367	w s	-0.23989381
-1.5481591	í s	-0.23011598
-2.221065	p s	-0.23989381
-1.3101177	ú s	-0.22715119
-1.634939	- s	-0.24578722
-1.5315114	ń s	-0.23989381
-1.6459514	“ s	-0.23989381
-1.2984846	̩ s	-0.22180058
-1.2525511	‐ s	-0.23989381
-2.093689	ọ u	-0.2018818
-1.2673283	r u	-0.46479124
-2.053934	$ u	-0.36354935
-2.2614882	y u	-0.23989381
-1.4666864	n u	-0.41464046
-1.4362867	j u	-0.3147122
-2.0394568	ù u	-0.23989381
-1.8917909	o u	-0.24876414
-1.3040118	d u	-0.30664647
-1.890639	ò u	-0.2018818
-1.3340918	t u	-0.33973813
-1.3639596	b u	-0.32428423
-2.228928	a u	-0.23989381
-1.1731794	g u	-0.44713873
-2.2474875	e u	-0.23989381
-2.3898497	i u	-0.23989381
-1.3850621	s u	-0.3701666
-2.1492496	u u	-0.23989381
-2.39227	ẹ u	-0.23989381
-1.2474701	l u	-0.43793976
-1.1821644	m u	-0.3991901
-1.3507054	k u	-0.44880664
-2.1861377	ó u	-0.23989381
-1.3047836	f u	-0.40219727
-1.3844328	w u	-0.25804204
-2.1959727	í u	-0.23989381
-1.6858274	p u	-0.2166898
-1.1168017	ṣ u	-0.39612332
-1.7807913	ú u	-0.25176167
-0.83588296	h u	-0.43598565
-2.2210305	- u	-0.23989381
-1.285733	c u	-0.23989381
-0.7061254	z u	-0.23989381
-0.37955558	q u	-0.23989381
-1.2492042	<s> ẹ	-0.9878807
-2.4143662	ọ ẹ	-0.23989381
-1.2943308	r ẹ	-0.36070168
-1.5652632	$ ẹ	-0.7647742
-2.2493024	ì ẹ	-0.23989381
-1.1821339	y ẹ	-0.34346545
-2.2068617	n ẹ	-0.23989381
-1.062384	j ẹ	-0.42872754
-1.4912472	d ẹ	-0.25315717
-1.2251127	t ẹ	-0.29392782
-1.1678312	b ẹ	-0.42134607
-1.5820389	g ẹ	-0.23583513
-2.2474875	e ẹ	-0.23989381
-2.0837398	i ẹ	-0.24697554
-1.3022314	s ẹ	-0.45479396
-1.4712219	ẹ ẹ	-0.2764322
-1.2203147	l ẹ	-0.37819973
-1.3677073	m ẹ	-0.3072795
-2.1700761	é ẹ	-0.23989381
-1.2859694	k ẹ	-0.34673932
-2.1715913	è ẹ	-0.23989381
-0.9818939	f ẹ	-0.3803796
-1.4479936	w ẹ	-0.27350652
-2.1959727	í ẹ	-0.23989381
-1.090334	p ẹ	-0.3582248
-1.0460858	ṣ ẹ	-0.39993492
-2.0047708	h ẹ	-0.23989381
-1.552318	- ẹ	-0.23583513
-0.9400204	̣ ẹ	-0.23989381
-1.1435391	’ ẹ	-0.24876414
-1.3796785	“ ẹ	-0.24697554
-1.3262397	/ ẹ	-0.23989381
-1.3467348	‘ ẹ	-0.23989381
-1.490613	( ẹ	-0.23989381
-1.420365	<s> l	-1.0598888
-1.1524252	ọ l	-0.516953
-2.38184	r l	-0.23989381
-1.4428114	$ l	-0.868596
-1.3160517	ì l	-0.2524083
-1.4166617	à l	-0.3048533
-1.5312183	n l	-0.38369638
-1.3833017	ù l	-0.24697554
-1.2323613	o l	-0.36018813
-2.3273726	d l	-0.23989381
-1.8709873	ò l	-0.23989381
-1.9686538	b l	-0.23989381
-1.2422613	a l	-0.38922054
-2.173851	g l	-0.23989381
-1.08578	e l	-0.29322314
-1.0721256	i l	-0.433899
-2.286818	s l	-0.23989381
-1.3689024	u l	-0.22804913
-1.3598728	ẹ l	-0.39819533
-2.0232663	l l	-0.23989381
-1.423172	é l	-0.23011598
-1.1768686	á l	-0.35648966
-1.3405751	ó l	-0.25176165
-1.110877	è l	-0.34385383
-1.2720295	í l	-0.3264885
-2.1924028	p l	-0.23989381
-1.3657593	ú l	-0.23883276
-1.4136752	- l	-0.34251222
-1.5809071	c l	-0.23989381
-1.2216206	ń l	-0.24578722
-1.7490084	’ l	-0.23989381
-1.3629569	“ l	-0.23989381
-1.3272152	‘ l	-0.23989381
-0.6621263	ị l	-0.23989381
-1.4636602	( l	-0.23989381
-1.714607	) l	-0.23989381
-0.8213102	ã l	-0.23989381
-1.3971504	̩ l	-0.25004625
-1.5338451	‐ l	-0.23989381
-2.1270697	<s> m	-0.4097076
-1.3643007	ọ m	-0.44232076
-1.5850129	$ m	-0.8144415
-1.3721837	ì m	-0.3314911
-1.3881782	à m	-0.29048994
-1.5052407	n m	-0.34039912
-1.3970156	ù m	-0.22524668
-1.4323142	o m	-0.4042281
-1.654271	ò m	-0.28497246
-1.3743743	a m	-0.24440035
-1.5585787	e m	-0.25056016
-1.4646428	i m	-0.32391104
-2.3505793	s m	-0.23989381
-1.5406128	u m	-0.22804913
-1.5649011	ẹ m	-0.31237
-2.4324358	l m	-0.23989381
-1.8548056	m m	-0.24876414
-1.9883898	é m	-0.23989381
-1.7409086	á m	-0.25004625
-1.4654909	ó m	-0.23065351
-1.672757	è m	-0.24876414
-1.6409479	í m	-0.33072996
-1.7920158	ú m	-0.21107745
-2.0250797	h m	-0.23989381
-1.3705537	- m	-0.31995934
-1.6191815	c m	-0.23989381
-1.5534589	ń m	-0.23989381
-1.6718891	“ m	-0.23989381
-1.6531243	/ m	-0.23989381
-1.7187194	̩ m	-0.23989381
-1.575999	‐ m	-0.23989381
-3.063978	<s> é	-0.21107745
-1.5658897	r é	-0.28066468
-2.2909577	$ é	-0.29587102
-1.1517993	y é	-0.3565707
-1.3389893	j é	-0.39937118
-1.1514428	d é	-0.38535988
-1.437263	t é	-0.27641097
-1.5229212	b é	-0.25211653
-1.5115067	g é	-0.2350279
-1.7338643	e é	-0.22951214
-1.7307473	s é	-0.22524668
-1.0707566	l é	-0.4670198
-1.3247474	m é	-0.2764206
-2.036026	é é	-0.23989381
-1.2625374	k é	-0.292164
-1.488047	è é	-0.24697554
-1.7693052	f é	-0.21107745
-1.2020857	w é	-0.44810474
-1.5002033	p é	-0.3027819
-1.38113	ṣ é	-0.33719358
-1.780706	h é	-0.23989381
-1.8461125	’ é	-0.23989381
-1.7611785	̩ é	-0.25781947
-3.342298	<s> á	-0.25781947
-1.3278295	r á	-0.37248847
-1.7384571	$ á	-0.45791417
-2.3112829	ì á	-0.23989381
-1.2713768	y á	-0.35036582
-1.3582174	à á	-0.33784452
-1.4430134	n á	-0.48422804
-1.2509769	j á	-0.29713294
-1.149573	d á	-0.3467497
-1.4330178	t á	-0.3950463
-1.1214987	b á	-0.3758604
-1.9872549	a á	-0.23989381
-1.7089012	g á	-0.2874188
-1.3916174	s á	-0.33902314
-1.1738847	l á	-0.32718053
-1.3205799	m á	-0.25797176
-1.6626903	á á	-0.24494037
-1.3551567	k á	-0.34385383
-1.4800274	f á	-0.24776956
-1.1627021	w á	-0.35779902
-2.2627587	í á	-0.23989381
-1.205365	p á	-0.3829993
-1.4533848	ṣ á	-0.24697554
-1.4233879	h á	-0.24697554
-2.0622346	- á	-0.23989381
-1.322703	’ á	-0.25176167
-1.5987169	‐ á	-0.23989381
-1.3094997	<s> k	-0.9699265
-1.2814374	ọ k	-0.5243646
-2.4218972	r k	-0.23989381
-1.4724087	$ k	-0.88796484
-1.1689943	ì k	-0.2941884
-1.3219695	à k	-0.30360863
-1.4666864	n k	-0.25604022
-1.3032786	ù k	-0.25914603
-1.2624787	o k	-0.3595381
-1.0449946	ò k	-0.3515269
-1.4023106	a k	-0.31029856
-1.3943387	e k	-0.25801232
-1.3081939	i k	-0.30198568
-1.4479418	u k	-0.25176165
-1.3639843	ẹ k	-0.4072075
-2.4076962	l k	-0.23989381
-2.2103646	m k	-0.23989381
-1.3165154	é k	-0.24131683
-1.3351203	á k	-0.30283657
-1.2179745	ó k	-0.23418327
-1.2815185	è k	-0.25798962
-1.6336188	í k	-0.24569026
-1.3113691	ú k	-0.25176167
-1.3193537	- k	-0.319718
-1.6044306	c k	-0.23989381
-1.5368952	ń k	-0.23989381
-1.0303363	ǹ k	-0.23989381
-1.3796785	“ k	-0.24494037
-1.3467348	‘ k	-0.23989381
-0.66627324	 k	-0.23989381
-0.66627324	õ k	-0.23989381
-0.66627324	͂ k	-0.23989381
-1.30041	̩ k	-0.25326818
-1.5597081	‐ k	-0.23989381
-1.473315	<s> ó	-1.6448246
-1.5125616	r ó	-0.33946693
-1.5700794	$ ó	-0.6852429
-2.3112829	ì ó	-0.23989381
-1.724663	y ó	-0.24876414
-2.2396917	à ó	-0.24876414
-1.291513	j ó	-0.35710484
-1.206429	d ó	-0.4078397
-1.3386952	ò ó	-0.34365678
-1.1984046	t ó	-0.3631918
-1.5181427	b ó	-0.2869876
-1.3116904	g ó	-0.27643543
-2.3162224	e ó	-0.23989381
-1.6331928	s ó	-0.25804204
-1.2513676	l ó	-0.32898116
-1.6030686	m ó	-0.23156874
-2.37914	á ó	-0.23989381
-1.3919353	k ó	-0.31521285
-1.8864285	ó ó	-0.25176167
-1.5969049	f ó	-0.24697554
-1.240196	w ó	-0.3645291
-2.2627587	í ó	-0.23989381
-1.2992973	p ó	-0.29435128
-1.8257769	ṣ ó	-0.24578722
-2.0537262	h ó	-0.23989381
-1.5313987	( ó	-0.23989381
-1.9812362	̩ ó	-0.23989381
-1.8472108	<s> è	-0.6132213
-1.4716091	r è	-0.3506351
-1.62822	$ è	-0.77079403
-1.2288958	y è	-0.43281153
-1.5102041	j è	-0.24876414
-1.6418782	d è	-0.40219727
-1.8356282	t è	-0.25176167
-1.5217216	b è	-0.22421989
-1.6010202	g è	-0.22951214
-2.349373	e è	-0.23989381
-1.3944573	s è	-0.34821865
-1.2530487	l è	-0.3901751
-2.2993383	m è	-0.23989381
-1.609622	é è	-0.24578722
-1.5285717	k è	-0.28604105
-1.4115455	è è	-0.23583513
-1.7662749	f è	-0.24876414
-1.6279494	w è	-0.24578722
-1.3019663	p è	-0.33475924
-1.4569523	ṣ è	-0.2732566
-1.5710793	- è	-0.28604105
-1.4151866	“ è	-0.23989381
-1.5913488	̩ è	-0.2166898
-1.0902339	‐ è	-0.2166898
-1.687712	<s> f	-0.7880266
-1.3992699	ọ f	-0.25576934
-1.4768516	$ f	-0.75191116
-1.659379	ì f	-0.22715119
-1.7501688	à f	-0.2350279
-1.7513201	n f	-0.22047201
-1.8456103	ù f	-0.23989381
-1.8065767	o f	-0.24697554
-1.3398247	ò f	-0.3631227
-1.796856	a f	-0.23156874
-1.8328152	e f	-0.24876414
-1.7154212	i f	-0.25801232
-1.6638676	u f	-0.23989381
-1.5232211	ẹ f	-0.25914603
-2.2446856	é f	-0.23989381
-1.6646158	á f	-0.22951214
-1.8908291	ó f	-0.23989381
-2.2420692	è f	-0.23989381
-2.0565095	í f	-0.23989381
-1.9684994	ú f	-0.23989381
-2.068216	- f	-0.23989381
-1.5825515	ń f	-0.23989381
-1.7066541	“ f	-0.23989381
-0.8436333	… f	-0.23989381
-1.5375509	( f	-0.23989381
-1.7447661	̩ f	-0.23989381
-1.795729	<s> w	-1.0825909
-1.3108261	ọ w	-0.4699876
-2.4754188	r w	-0.23989381
-1.5358764	$ w	-0.8039418
-1.3754811	ì w	-0.26885793
-1.6739699	à w	-0.2531958
-1.7465081	n w	-0.22421989
-2.0879357	ù w	-0.23989381
-1.3265609	o w	-0.3565873
-1.5744367	ò w	-0.2245356
-2.3695693	t w	-0.23989381
-1.515791	a w	-0.34385383
-1.6352142	e w	-0.22655223
-1.5069062	i w	-0.3059523
-1.546666	u w	-0.28066468
-1.4776144	ẹ w	-0.27500904
-2.4586704	l w	-0.23989381
-1.6002923	é w	-0.24381386
-1.4235238	á w	-0.31732783
-2.4880075	k w	-0.23989381
-1.5426652	ó w	-0.28066468
-1.8317689	è w	-0.23989381
-1.4288968	í w	-0.3034041
-1.5432762	ú w	-0.24876414
-1.6507707	- w	-0.24697554
-1.251456	ń w	-0.24876414
-0.949515	̣ w	-0.23989381
-1.4245195	̩ w	-0.24876414
-2.47123	ọ í	-0.23989381
-1.1981324	r í	-0.3802287
-2.1252959	$ í	-0.42752016
-1.3754811	ì í	-0.39612332
-1.3760731	y í	-0.31137007
-2.0862885	à í	-0.23989381
-1.4116198	n í	-0.33833498
-1.5820155	j í	-0.23903145
-1.4417988	d í	-0.29753894
-1.0913068	t í	-0.4960323
-1.198365	b í	-0.4199205
-1.7064209	g í	-0.22340018
-2.3057117	e í	-0.23989381
-2.111704	i í	-0.23989381
-1.1231657	s í	-0.3985633
-1.5697241	l í	-0.25285682
-1.3195442	m í	-0.29829392
-2.002879	á í	-0.23989381
-1.4755597	k í	-0.26284775
-1.1905742	f í	-0.3339754
-1.6216781	w í	-0.23065351
-2.0438664	í í	-0.23989381
-1.4932165	p í	-0.22951214
-1.3114431	ṣ í	-0.23874442
-1.7614009	h í	-0.23989381
-2.275711	- í	-0.23989381
-1.5047235	’ í	-0.25781947
-1.7341592	̩ í	-0.23989381
-2.174703	<s> p	-0.3840818
-1.5971199	ọ p	-0.32573953
-2.4754188	r p	-0.23989381
-1.5358764	$ p	-0.80720264
-1.566663	ì p	-0.24501008
-2.308205	y p	-0.23989381
-1.4663284	à p	-0.3190798
-1.7465081	n p	-0.23890844
-1.5167168	ù p	-0.25781947
-1.910018	o p	-0.24876414
-1.7700636	ò p	-0.2166898
-1.5587755	a p	-0.29190516
-1.5031676	e p	-0.28118593
-1.3990726	i p	-0.31359228
-2.141026	s p	-0.23989381
-1.6585772	u p	-0.23989381
-1.6845081	ẹ p	-0.33233842
-2.0233364	m p	-0.23989381
-1.856087	é p	-0.23989381
-1.5882634	á p	-0.21577567
-1.6292554	ó p	-0.25176167
-1.8317689	è p	-0.23989381
-1.4288968	í p	-0.23214069
-1.5432762	ú p	-0.22951214
-1.4908276	- p	-0.24494037
-1.251456	ń p	-0.23989381
-1.5253323	( p	-0.23989381
-1.9720793	̩ p	-0.23989381
-2.470919	<s> ṣ	-0.38115594
-1.6039385	ọ ṣ	-0.32653594
-1.6290118	$ ṣ	-0.66320264
-1.5004796	ì ṣ	-0.24276496
-1.5154265	à ṣ	-0.36067465
-1.7586397	n ṣ	-0.25958917
-1.4111767	ù ṣ	-0.25004625
-1.5883795	o ṣ	-0.25914603
-1.392126	ò ṣ	-0.317107
-1.6681957	a ṣ	-0.28604105
-1.7338643	e ṣ	-0.24578722
-1.6590918	i ṣ	-0.33377966
-1.9936574	u ṣ	-0.23989381
-1.6932366	ẹ ṣ	-0.22804913
-2.036026	é ṣ	-0.23989381
-1.6704437	á ṣ	-0.2732566
-1.7533431	ó ṣ	-0.2166898
-1.488047	è ṣ	-0.23156874
-1.5727181	í ṣ	-0.22655223
-1.6682179	ú ṣ	-0.24697554
-2.3272066	- ṣ	-0.23989381
-1.6009909	ń ṣ	-0.23989381
-1.4189025	“ ṣ	-0.25781947
-2.12447	ọ ú	-0.25176167
-1.2215797	r ú	-0.43581703
-2.2766428	$ ú	-0.22804913
-2.3112829	ì ú	-0.23989381
-1.883699	y ú	-0.2018818
-1.4127278	n ú	-0.48392415
-1.0909375	j ú	-0.39226866
-1.6758488	ù ú	-0.23989381
-2.058987	o ú	-0.2018818
-1.1770712	d ú	-0.38470078
-2.0695157	ò ú	-0.25781947
-1.3000574	t ú	-0.3537675
-1.4138697	b ú	-0.36848035
-1.0763657	g ú	-0.6382236
-1.7225839	s ú	-0.22524668
-1.2513676	l ú	-0.34277213
-1.1874744	m ú	-0.30693585
-1.1597011	k ú	-0.51552624
-2.2519996	ó ú	-0.23989381
-1.1913772	f ú	-0.32018992
-1.3907888	w ú	-0.27792358
-2.2847764	p ú	-0.23989381
-1.5459311	ṣ ú	-0.22951214
-2.1954443	ú ú	-0.23989381
-1.4233879	h ú	-0.21107745
-2.2855332	- ú	-0.23989381
-1.5987169	‐ ú	-0.23989381
-1.9805533	ọ h	-0.25417468
-1.6898606	$ h	-0.5519699
-1.9202423	ì h	-0.24876414
-2.457761	à h	-0.23989381
-2.4322653	n h	-0.23989381
-1.5281819	o h	-0.38295105
-1.7731204	ò h	-0.23989381
-1.5515151	t h	-0.23836194
-1.7231132	a h	-0.22882876
-2.0244727	g h	-0.23989381
-1.8293338	e h	-0.24876414
-2.2578673	i h	-0.23989381
-1.8352733	s h	-0.23989381
-1.9714848	u h	-0.25781947
-1.5220306	ẹ h	-0.5867411
-2.4677796	l h	-0.23989381
-2.2346277	é h	-0.23989381
-2.0071044	á h	-0.24876414
-2.4967742	k h	-0.23989381
-1.7406398	ó h	-0.22610599
-2.2326083	è h	-0.23989381
-2.050142	í h	-0.23989381
-2.2847764	p h	-0.23989381
-2.2855332	- h	-0.23989381
-0.63518876	c h	-0.25994396
-1.5765749	ń h	-0.23989381
-1.8197265	’ h	-0.23989381
-1.7232255	ọ -	-0.24855761
-2.5364761	r -	-0.23989381
-1.9370072	$ -	-0.4541155
-2.1051867	ì -	-0.23989381
-1.5655708	à -	-0.2631752
-1.5995265	n -	-0.2865677
-1.5307055	ù -	-0.23989381
-1.9290435	o -	-0.23989381
-1.675793	ò -	-0.24494037
-1.5664719	a -	-0.26039308
-1.9953696	e -	-0.24697554
-1.5141418	i -	-0.2520785
-1.5590317	u -	-0.23989381
-1.5768746	ẹ -	-0.2590922
-1.6143631	é -	-0.23728733
-1.479302	á -	-0.24695137
-2.5434773	k -	-0.23989381
-1.5547357	ó -	-0.24807534
-2.0214598	è -	-0.23989381
-1.6637079	í -	-0.24309847
-1.4655948	ú -	-0.24141866
-1.5708101	: -	-0.23989381
-2.6623344	r c	-0.23989381
-1.7815268	$ c	-0.38295105
-2.654713	n c	-0.23989381
-2.130081	o c	-0.23989381
-2.5475357	t c	-0.23989381
-2.0416794	a c	-0.24876414
-2.4343493	g c	-0.23989381
-1.9133308	i c	-0.29587102
-2.555105	s c	-0.23989381
-2.0612066	u c	-0.23989381
-2.4680424	- c	-0.23989381
-1.8220589	“ c	-0.23989381
-2.8679535	$ v	-0.23989381
-2.073759	a v	-0.25781947
-2.6761734	e v	-0.23989381
-2.4496284	i v	-0.25781947
-2.8679535	$ z	-0.25781947
-2.8340826	a z	-0.23989381
-2.3019834	e z	-0.23989381
-2.8227618	i z	-0.23989381
-2.877562	n ί	-0.23989381
-2.7232916	b ί	-0.23989381
-2.7007496	s ί	-0.23989381
-2.7955961	l ὸ	-0.23989381
-2.7496767	à !	-0.23989381
-2.7899568	n !	-0.23989381
-2.3343644	ù !	-0.23989381
-2.718065	o !	-0.23989381
-2.46629	ú !	-0.23989381
-1.2860835	! !	-0.23989381
-2.7836459	ọ ń	-0.23989381
-1.7094392	$ ń	-0.54776037
-2.392245	à ń	-0.23989381
-2.5192518	é ń	-0.23989381
-2.306667	á ń	-0.25781947
-2.5455098	ó ń	-0.23989381
-1.7647243	$ –	-0.7964734
-2.2042093	à ǹ	-0.25176167
-2.8463552	n ǹ	-0.23989381
-2.8340826	a ǹ	-0.23989381
-2.7066793	á ǹ	-0.23989381
-2.2758794	$ ḿ	-0.5029118
-2.7278714	e x	-0.23989381
-2.6280594	ọ ;	-0.23989381
-2.6002204	à ;	-0.23989381
-2.0540435	n ;	-0.32682052
-2.2162883	ù ;	-0.23989381
-2.5678453	o ;	-0.23989381
-2.3598526	a ;	-0.25781947
-2.0324864	e ;	-0.2018818
-2.6114092	i ;	-0.23989381
-2.3403647	u ;	-0.23989381
-2.3987682	m ;	-0.23989381
-2.3741188	é ;	-0.23989381
-1.9424291	ó ;	-0.2018818
-2.408437	í ;	-0.23989381
-2.0360923	ú ;	-0.25781947
-1.8082428	̩ ;	-0.25781947
-2.4590833	ọ ̣	-0.23989381
-2.8234117	ẹ ̣	-0.23989381
-0.9914744	̣ ̣	-0.23989381
-2.193468	ọ :	-0.25176167
-2.6479752	r :	-0.23989381
-2.635764	n :	-0.23989381
-2.658959	a :	-0.23989381
-2.2179925	e :	-0.23989381
-2.0282407	i :	-0.21107745
-2.1659207	ẹ :	-0.2018818
-1.9234265	é :	-0.2018818
-2.5481472	á :	-0.23989381
-2.1312382	ó :	-0.25781947
-2.1491022	í :	-0.25781947
-1.1232708	” :	-0.25781947
-1.2067496	8 :	-0.23989381
-2.270398	ọ ’	-0.25781947
-2.4850173	r ’	-0.23989381
-2.3112829	ì ’	-0.23989381
-2.316504	y ’	-0.23989381
-2.2581148	n ’	-0.23989381
-2.424867	o ’	-0.23989381
-2.421085	d ’	-0.23989381
-2.28916	ò ’	-0.23989381
-2.3787923	t ’	-0.23989381
-2.410904	b ’	-0.23989381
-2.4782007	a ’	-0.23989381
-2.1129813	e ’	-0.23989381
-2.4590132	i ’	-0.23989381
-2.3863528	s ’	-0.23989381
-2.2452526	ẹ ’	-0.23989381
-2.4677796	l ’	-0.23989381
-2.2706819	m ’	-0.23989381
-2.0115552	é ’	-0.23989381
-2.4967742	k ’	-0.23989381
-2.2519996	ó ’	-0.23989381
-2.1978192	f ’	-0.23989381
-1.903514	í ’	-0.23989381
-2.2759726	ṣ ’	-0.23989381
-2.1954443	ú ’	-0.23989381
-1.322703	’ ’	-0.25176167
-1.3756258	‘ ’	-0.23989381
-0.4235824	… ’	-0.23989381
-2.3223712	<s> “	-0.2409606
-1.8891227	$ “	-0.33199784
-2.877562	n “	-0.23989381
-1.6080816	ọ ”	-0.5029118
-2.5487447	$ ”	-0.25176167
-2.3795137	y ”	-0.23989381
-1.9667758	à ”	-0.21107745
-1.704644	n ”	-0.5029118
-1.876005	ù ”	-0.24876414
-1.9355752	o ”	-0.32682052
-2.1142282	ò ”	-0.25176167
-1.7363052	a ”	-0.31625706
-1.7422953	e ”	-0.22340018
-1.8896002	i ”	-0.2071126
-2.2813797	u ”	-0.23989381
-1.5304335	ẹ ”	-0.4651232
-1.6191565	é ”	-0.22610599
-2.4554737	á ”	-0.23989381
-1.6490753	ó ”	-0.22340018
-1.7020891	è ”	-0.25781947
-2.341715	í ”	-0.23989381
-2.2684186	ú ”	-0.23989381
-0.96658194	? ”	-0.23989381
-2.3469007	ọ /	-0.23989381
-2.728208	$ /	-0.23989381
-2.4310749	ì /	-0.23989381
-2.1989732	n /	-0.23989381
-2.5294142	d /	-0.23989381
-2.416963	ò /	-0.23989381
-2.5272892	b /	-0.23989381
-2.351884	a /	-0.23989381
-2.4525838	e /	-0.23989381
-2.1736937	i /	-0.24876414
-2.150489	ẹ /	-0.23989381
-2.5059881	á /	-0.23989381
-2.1087503	ó /	-0.23989381
-2.350108	è /	-0.23989381
-1.1994214	2 /	-0.23989381
-1.5429189	0 /	-0.23989381
-3.272365	$ &	-0.23989381
-2.6413977	í &	-0.23989381
-2.911186	n "	-0.23989381
-2.6608515	$ 1	-0.24876414
-2.8172412	n 1	-0.23989381
-1.5808634	0 1	-0.23989381
-1.3755561	9 1	-0.23989381
-1.6922084	( 1	-0.23989381
-1.8259101	/ 8	-0.23989381
-0.8134608	1 8	-0.25176167
-1.1561972	0 8	-0.23989381
-1.3794156	9 8	-0.23989381
-3.1648397	$ 2	-0.23989381
-2.7899568	n 2	-0.23989381
-1.8104688	/ 2	-0.23989381
-1.3717306	9 2	-0.23989381
-1.6834507	( 2	-0.23989381
-0.39178422	− 2	-0.23989381
-3.0900285	$ 0	-0.23989381
-1.6022122	: 0	-0.23989381
-1.0238324	1 0	-0.23989381
-0.5775716	8 0	-0.25176167
-0.5775716	2 0	-0.23989381
-0.4361875	0 0	-0.51210743
-0.5123674	6 0	-0.21107745
-0.7945917	4 0	-0.25781947
-0.68762386	3 0	-0.23989381
-2.8172412	n 6	-0.23989381
-1.0295188	1 6	-0.23989381
-1.2269183	2 6	-0.23989381
-0.69113946	7 6	-0.23989381
-1.6922084	( 6	-0.23989381
-3.8756053	<s> 9	-0.23989381
-3.1929436	$ 9	-0.23989381
-1.4548962	1 9	-0.23989381
-1.2269183	2 9	-0.23989381
-0.69113946	3 9	-0.23989381
-0.81259155	1 4	-0.25176167
-1.2269183	8 4	-0.23989381
-1.2269183	2 4	-0.23989381
-0.95027786	9 4	-0.23989381
-1.6922084	( 4	-0.23989381
-3.9209387	<s> ‘	-0.23989381
-2.124757	$ ‘	-0.23477334
-2.609979	ó ‘	-0.23989381
-2.59443	y ị	-0.23989381
-2.7974498	k ị	-0.23989381
-1.4645289	1 7	-0.23989381
-1.38527	9 7	-0.23989381
-3.290154	$ q	-0.23989381
-2.6419837	ò …	-0.23989381
-2.7012537	e …	-0.23989381
-2.6292381	í …	-0.23989381
-1.8555268	$ (	-0.2659728
-2.8940487	n 3	-0.23989381
-1.38527	9 3	-0.23989381
-2.3246648	ọ )	-0.25781947
-2.3893106	y )	-0.23989381
-1.9700558	à )	-0.21107745
-2.1790893	n )	-0.25781947
-2.2599547	o )	-0.25781947
-2.3782177	ò )	-0.23989381
-2.4606104	t )	-0.23989381
-2.3288195	a )	-0.25781947
-2.4109542	e )	-0.23989381
-2.1573472	i )	-0.25176167
-1.9799323	ẹ )	-0.25781947
-2.4675622	á )	-0.23989381
-2.3419888	ó )	-0.23989381
-2.314785	è )	-0.23989381
-2.3542645	í )	-0.23989381
-2.359468	p )	-0.23989381
-2.2799215	ú )	-0.23989381
-0.7424216	0 )	-0.29587102
-0.6789572	7 )	-0.23989381
-2.515671	n 	-0.25176167
-1.235122	4 5	-0.23989381
-2.6560118	ì *	-0.23989381
-2.5018315	n ?	-0.23989381
-2.8587356	a ?	-0.23989381
-2.8482447	i ?	-0.23989381
-2.4403222	ẹ ̃	-0.23989381
-2.7642858	n ã	-0.23989381
-2.6530693	b ã	-0.23989381
-2.5060472	g ã	-0.23989381
-2.7073011	l ã	-0.23989381
-2.511538	m ã	-0.23989381
-2.4023743	f ã	-0.23989381
-2.5030336	p ã	-0.23989381
-2.7028897	t õ	-0.23989381
-2.7974498	k õ	-0.23989381
-2.4403222	ẹ ͂	-0.23989381
-1.3430617	o ̩	-0.32144687
-1.2360001	ò ̩	-0.31986022
-2.6063335	t ̩	-0.23989381
-1.4287814	e ̩	-0.2937732
-1.284848	s ̩	-0.32666728
-1.1731014	é ̩	-0.33806166
-1.2844008	ó ̩	-0.30019423
-1.25843	è ̩	-0.26427424
-2.249248	n ‐	-0.23989381
-2.1953638	ò ‐	-0.23989381
-2.7282581	a ‐	-0.23989381
-2.7138789	i ‐	-0.23989381
-1.9432985	é ‐	-0.23989381
-2.281992	á ‐	-0.23989381
-2.1820781	í ‐	-0.23989381
-1.4762803	̩ ‐	-0.22684996
-0.68762386	̄ ‐	-0.23989381
-2.515671	n ̄	-0.23989381
-3.290154	$ −	-0.23989381

\3-grams:
-1.3658761	ọ ọ </s>	0
-1.010185	r ọ </s>	0
-1.9109062	$ ọ </s>	0
-1.2059821	y ọ </s>	0
-0.9256461	n ọ </s>	0
-0.9275765	j ọ </s>	0
-1.3261513	d ọ </s>	0
-1.0485036	t ọ </s>	0
-1.0955458	b ọ </s>	0
-1.2187653	g ọ </s>	0
-1.3605511	s ọ </s>	0
-1.0662439	l ọ </s>	0
-0.98193204	m ọ </s>	0
-1.1491314	k ọ </s>	0
-1.1963449	f ọ </s>	0
-1.4034821	w ọ </s>	0
-0.7546029	p ọ </s>	0
-1.1686835	ṣ ọ </s>	0
-0.61218077	h ọ </s>	0
-1.8179952	e r </s>	0
-1.3973514	r ì </s>	0
-1.4901452	y ì </s>	0
-1.0761704	j ì </s>	0
-1.2946157	t ì </s>	0
-1.148112	b ì </s>	0
-0.8732017	g ì </s>	0
-1.2146249	s ì </s>	0
-1.1689545	m ì </s>	0
-0.97836983	k ì </s>	0
-0.9498723	í ì </s>	0
-0.36871913	c y </s>	0
-0.97302866	r à </s>	0
-0.620028	ì à </s>	0
-1.1744896	y à </s>	0
-0.92036104	n à </s>	0
-0.85936916	j à </s>	0
-0.9479797	d à </s>	0
-1.3446338	t à </s>	0
-1.3804597	b à </s>	0
-1.3281009	l à </s>	0
-1.3635411	á à </s>	0
-1.0845482	k à </s>	0
-1.1044608	f à </s>	0
-1.2421395	w à </s>	0
-0.8603052	í à </s>	0
-0.84117985	ṣ à </s>	0
-1.2095597	ọ n </s>	0
-1.0367118	ì n </s>	0
-0.98454887	à n </s>	0
-0.92827034	ù n </s>	0
-1.6184353	o n </s>	0
-1.0230026	a n </s>	0
-1.0764318	i n </s>	0
-0.846909	u n </s>	0
-1.0341482	á n </s>	0
-1.2656335	í n </s>	0
-0.81975	ú n </s>	0
-1.160269	̩ n </s>	0
-2.5388527	$ j </s>	0
-1.2337375	r ù </s>	0
-0.7453328	n ù </s>	0
-0.8107107	j ù </s>	0
-1.0579498	t ù </s>	0
-1.0721711	l ù </s>	0
-0.929258	m ù </s>	0
-1.23319	k ù </s>	0
-0.7945827	f ù </s>	0
-1.0467436	w ù </s>	0
-0.85269576	ú ù </s>	0
-1.1373526	h ù </s>	0
-1.3309587	r o </s>	0
-1.6300496	$ o </s>	0
-0.61996603	n o </s>	0
-1.409101	j o </s>	0
-1.3413833	d o </s>	0
-1.3438052	t o </s>	0
-1.456592	b o </s>	0
-1.1486826	g o </s>	0
-1.3676896	l o </s>	0
-1.1458471	k o </s>	0
-1.2291275	f o </s>	0
-1.0551996	w o </s>	0
-1.3589995	p o </s>	0
-1.236041	ṣ o </s>	0
-1.8213089	n d </s>	0
-1.8871615	a d </s>	0
-0.97221386	r ò </s>	0
-1.9479297	$ ò </s>	0
-0.8441931	j ò </s>	0
-1.1594254	d ò </s>	0
-1.3554909	t ò </s>	0
-1.1721827	b ò </s>	0
-1.2216638	l ò </s>	0
-1.3538066	k ò </s>	0
-1.0579226	f ò </s>	0
-1.1784681	w ò </s>	0
-1.1658527	p ò </s>	0
-0.6670861	p t </s>	0
-0.36934128	s b </s>	0
-0.9212734	r a </s>	0
-1.9895967	$ a </s>	0
-1.2527025	y a </s>	0
-1.1464514	n a </s>	0
-1.2419151	j a </s>	0
-1.3009944	d a </s>	0
-0.99045926	t a </s>	0
-1.1832112	b a </s>	0
-1.218093	a a </s>	0
-0.9218052	g a </s>	0
-0.99174464	i a </s>	0
-1.128169	l a </s>	0
-1.2748555	m a </s>	0
-0.7956082	á a </s>	0
-1.4390169	k a </s>	0
-1.0540516	f a </s>	0
-1.0211415	w a </s>	0
-1.2490115	p a </s>	0
-1.2522063	ṣ a </s>	0
-1.3096464	h a </s>	0
-1.2123382	r e </s>	0
-1.7737033	$ e </s>	0
-0.82075745	y e </s>	0
-1.091428	j e </s>	0
-0.70942736	d e </s>	0
-1.0904723	t e </s>	0
-1.3073971	b e </s>	0
-1.2823579	s e </s>	0
-1.0390712	l e </s>	0
-1.3670018	k e </s>	0
-1.0485687	w e </s>	0
-1.280476	p e </s>	0
-1.1133925	ṣ e </s>	0
-1.0975032	̩ e </s>	0
-0.9975404	r i </s>	0
-2.037897	$ i </s>	0
-0.34716573	ì i </s>	0
-1.0502169	y i </s>	0
-1.1838439	n i </s>	0
-1.1532177	j i </s>	0
-1.4355758	d i </s>	0
-1.2215154	t i </s>	0
-1.011559	b i </s>	0
-1.3230684	a i </s>	0
-1.2770162	s i </s>	0
-1.3706275	m i </s>	0
-1.5472788	k i </s>	0
-1.1830997	w i </s>	0
-1.2934116	ṣ i </s>	0
-1.3564368	r u </s>	0
-0.99868834	n u </s>	0
-1.3511845	b u </s>	0
-1.4727052	l u </s>	0
-0.85558116	m u </s>	0
-1.2983079	k u </s>	0
-1.2231761	w u </s>	0
-1.3181788	ṣ u </s>	0
-0.924785	r ẹ </s>	0
-1.8195561	$ ẹ </s>	0
-0.608323	ì ẹ </s>	0
-1.208972	y ẹ </s>	0
-0.88069737	j ẹ </s>	0
-1.2112906	d ẹ </s>	0
-1.2680999	t ẹ </s>	0
-0.90084463	b ẹ </s>	0
-0.96198565	g ẹ </s>	0
-0.9261297	i ẹ </s>	0
-1.3759389	s ẹ </s>	0
-1.1722054	ẹ ẹ </s>	0
-0.8896698	l ẹ </s>	0
-1.4389509	k ẹ </s>	0
-0.86652315	f ẹ </s>	0
-1.1917171	w ẹ </s>	0
-0.8528936	í ẹ </s>	0
-1.2229439	p ẹ </s>	0
-0.93885934	ṣ ẹ </s>	0
-0.96431506	b l </s>	0
-1.8321801	a m </s>	0
-1.0030363	r é </s>	0
-0.97145617	$ é </s>	0
-1.18608	y é </s>	0
-1.1070454	j é </s>	0
-0.93900704	d é </s>	0
-1.1209381	b é </s>	0
-1.0201045	s é </s>	0
-0.9087116	l é </s>	0
-1.1854248	k é </s>	0
-1.0819935	è é </s>	0
-0.7359465	w é </s>	0
-1.002423	p é </s>	0
-1.097226	ṣ é </s>	0
-1.0492469	r á </s>	0
-1.343205	$ á </s>	0
-1.1824658	y á </s>	0
-1.4008163	à á </s>	0
-0.8219715	n á </s>	0
-1.2553282	j á </s>	0
-1.3737139	d á </s>	0
-1.2592646	b á </s>	0
-0.93428904	a á </s>	0
-1.3616526	s á </s>	0
-1.2079633	l á </s>	0
-0.98868895	k á </s>	0
-1.4012879	w á </s>	0
-1.051951	p á </s>	0
-1.7578425	o k </s>	0
-0.665674	c k </s>	0
-0.8224626	r ó </s>	0
-1.54786	$ ó </s>	0
-1.0162499	y ó </s>	0
-0.825708	à ó </s>	0
-1.0784988	j ó </s>	0
-1.1908396	d ó </s>	0
-1.2236835	ò ó </s>	0
-1.2407024	t ó </s>	0
-1.1379192	b ó </s>	0
-1.1351842	g ó </s>	0
-1.3683321	l ó </s>	0
-1.0854343	k ó </s>	0
-0.7144367	w ó </s>	0
-0.96722555	p ó </s>	0
-0.9419187	ṣ ó </s>	0
-0.9269635	r è </s>	0
-0.91175187	y è </s>	0
-1.1514875	d è </s>	0
-1.0706391	b è </s>	0
-1.056157	g è </s>	0
-1.016834	s è </s>	0
-0.85291576	l è </s>	0
-1.113284	k è </s>	0
-0.8556962	f è </s>	0
-0.98182404	w è </s>	0
-1.2650299	r í </s>	0
-1.0185217	ì í </s>	0
-1.1752434	y í </s>	0
-1.1443101	n í </s>	0
-1.2414382	j í </s>	0
-1.2847332	t í </s>	0
-0.79630953	b í </s>	0
-1.3252496	s í </s>	0
-1.2581401	m í </s>	0
-1.3419281	k í </s>	0
-0.88300943	w í </s>	0
-0.7802354	r ú </s>	0
-0.97801995	$ ú </s>	0
-0.6546968	n ú </s>	0
-0.95991	j ú </s>	0
-1.2222106	d ú </s>	0
-1.2629582	t ú </s>	0
-1.0862259	b ú </s>	0
-1.0532814	l ú </s>	0
-1.1801801	m ú </s>	0
-1.1549442	k ú </s>	0
-1.1915442	f ú </s>	0
-1.1673617	w ú </s>	0
-0.15173624	n ! </s>	0
-0.15173624	ù ! </s>	0
-0.30723107	o ! </s>	0
-0.15173624	ú ! </s>	0
-0.15173624	! ! </s>	0
-0.35485387	é ; </s>	0
-0.6884824	ọ : </s>	0
-0.7551094	i : </s>	0
-0.5430521	” : </s>	0
-0.5522631	n ’ </s>	0
-0.5522631	e ’ </s>	0
-0.30752045	i ’ </s>	0
-0.5522631	ẹ ’ </s>	0
-0.7587808	í ’ </s>	0
-0.5522631	… ’ </s>	0
-0.21010667	ọ ” </s>	0
-0.47891688	$ ” </s>	0
-0.50128067	à ” </s>	0
-0.54804444	n ” </s>	0
-0.3812715	ù ” </s>	0
-0.47891688	ò ” </s>	0
-0.54042584	a ” </s>	0
-0.37018076	e ” </s>	0
-0.43128136	i ” </s>	0
-0.3092143	ẹ ” </s>	0
-0.41121083	é ” </s>	0
-0.41746306	ó ” </s>	0
-0.38542673	è ” </s>	0
-0.38937002	ú ” </s>	0
-0.59646827	0 8 </s>	0
-0.3327406	8 4 </s>	0
-0.5994998	à ) </s>	0
-0.45052323	n ) </s>	0
-0.2514555	e ) </s>	0
-0.56249297	i ) </s>	0
-0.45052323	ẹ ) </s>	0
-0.2514555	í ) </s>	0
-0.72050303	0 ) </s>	0
-0.17665763	4 5 </s>	0
-0.42126763	n ? </s>	0
-0.22819877	a ? </s>	0
-1.434454	o ̩ </s>	0
-1.539521	e ̩ </s>	0
-1.2316848	è ̩ </s>	0
-2.2780714	<s> ọ ọ	-0.20094405
-1.7759722	$ ọ ọ	-0.33563396
-1.5015464	j ọ ọ	-0.20094405
-1.2624329	d ọ ọ	-0.20094405
-1.4692433	t ọ ọ	-0.20094405
-1.6591281	b ọ ọ	-0.20094405
-1.6199576	s ọ ọ	-0.20094405
-1.6761714	l ọ ọ	-0.20094405
-1.6652592	m ọ ọ	-0.20094405
-1.2923656	k ọ ọ	-0.2466945
-1.6875424	p ọ ọ	-0.20094405
-1.3103205	ṣ ọ ọ	-0.20094405
-0.6569393	ọ r ọ	-0.5200597
-1.1493057	$ r ọ	-0.4377979
-1.2254152	ì r ọ	-0.20094405
-1.2660822	à r ọ	-0.25442088
-1.391288	n r ọ	-0.20094405
-1.1212645	ù r ọ	-0.20094405
-1.3272212	a r ọ	-0.23358786
-1.3887386	i r ọ	-0.2564527
-1.3319461	u r ọ	-0.20094405
-1.2715424	ẹ r ọ	-0.31364128
-1.4324443	é r ọ	-0.20094405
-1.310904	á r ọ	-0.2688863
-1.4646424	è r ọ	-0.20094405
-1.2821751	í r ọ	-0.2688863
-1.3576839	ú r ọ	-0.20094405
-0.888999	- r ọ	-0.20094405
-1.4295623	ọ $ ọ	-0.57492816
-1.5404909	ì $ ọ	-0.25543565
-1.4547505	à $ ọ	-0.40918124
-1.5273421	n $ ọ	-0.57462966
-1.3810836	ù $ ọ	-0.22321711
-1.4396935	o $ ọ	-0.31684095
-1.478205	ò $ ọ	-0.29442993
-1.547079	a $ ọ	-0.44372517
-1.5099233	e $ ọ	-0.40818068
-1.4666482	i $ ọ	-0.69679517
-1.3953948	u $ ọ	-0.282966
-1.4830158	ẹ $ ọ	-0.5042577
-1.3506321	l $ ọ	-0.20094405
-1.4027454	é $ ọ	-0.46654424
-1.4962705	á $ ọ	-0.34769958
-1.3948	ó $ ọ	-0.28085113
-1.4380826	è $ ọ	-0.24569996
-1.4613974	í $ ọ	-0.43612677
-1.4598807	ú $ ọ	-0.4597602
-1.0428979	- $ ọ	-0.24503821
-0.9948511	ί $ ọ	-0.20094405
-1.4374785	– $ ọ	-0.20094405
-1.4953235	; $ ọ	-0.20094405
-1.5487825	: $ ọ	-0.20094405
-1.5568643	” $ ọ	-0.20094405
-1.5173287	) $ ọ	-0.20094405
-1.3762141	m ì ọ	-0.20094405
-1.9401557	<s> y ọ	-0.20094405
-0.92152524	ọ y ọ	-0.27151394
-1.1649084	$ y ọ	-0.50017285
-1.2706324	ì y ọ	-0.20094405
-1.1832414	à y ọ	-0.2688863
-1.020858	a y ọ	-0.259969
-1.1087301	e y ọ	-0.20094405
-1.3828589	i y ọ	-0.20094405
-1.1649208	ẹ y ọ	-0.2688863
-1.0800111	á y ọ	-0.23358786
-1.1005466	ó y ọ	-0.20094405
-1.1062326	í y ọ	-0.20094405
-0.6470363	ú y ọ	-0.20094405
-0.7227354	- y ọ	-0.20094405
-0.8125317	ń y ọ	-0.20094405
-2.4513829	$ n ọ	-0.20094405
-2.1171184	i n ọ	-0.20094405
-1.4132736	ó n ọ	-0.20094405
-0.36588705	p n ọ	-0.20094405
-0.9841655	<s> j ọ	-0.20094405
-0.63695645	ọ j ọ	-0.31739706
-1.1142622	$ j ọ	-0.5126443
-0.88013864	ì j ọ	-0.2795156
-0.9779004	à j ọ	-0.2224318
-1.0914102	n j ọ	-0.20094405
-0.9547041	ù j ọ	-0.20094405
-1.1904119	o j ọ	-0.2688863
-1.0478253	ò j ọ	-0.20094405
-1.1634474	a j ọ	-0.20094405
-1.0350116	e j ọ	-0.20094405
-0.9745623	i j ọ	-0.24042176
-0.78347206	u j ọ	-0.20094405
-0.64904577	ẹ j ọ	-0.39043975
-1.0081284	é j ọ	-0.20094405
-1.0065571	á j ọ	-0.259969
-1.0909287	ó j ọ	-0.20094405
-1.0019403	è j ọ	-0.20094405
-1.0829614	í j ọ	-0.20094405
-1.0271422	- j ọ	-0.20094405
-0.3160963	’ j ọ	-0.20094405
-1.5562025	<s> d ọ	-0.20094405
-0.9251137	ọ d ọ	-0.34230167
-1.5603908	$ d ọ	-0.21929625
-1.5267614	n d ọ	-0.20094405
-1.386463	a d ọ	-0.25442088
-1.2409474	ẹ d ọ	-0.20094405
-1.3319399	á d ọ	-0.20094405
-1.1681525	ó d ọ	-0.20094405
-0.35111555	ã d ọ	-0.20094405
-1.7742178	l ò ọ	-0.20094405
-0.8448956	ọ t ọ	-0.34904706
-1.1223761	$ t ọ	-0.55725455
-1.2543103	ì t ọ	-0.20094405
-1.1589369	à t ọ	-0.20094405
-0.923925	n t ọ	-0.23358786
-0.9078209	ù t ọ	-0.20094405
-0.580955	o t ọ	-0.2688863
-1.3174939	a t ọ	-0.20094405
-1.2101318	i t ọ	-0.20094405
-1.3395886	ẹ t ọ	-0.20094405
-1.0544091	á t ọ	-0.20094405
-0.8558006	ó t ọ	-0.24503821
-0.99047554	í t ọ	-0.20094405
-1.0644788	- t ọ	-0.20094405
-0.5992743	ń t ọ	-0.20094405
-0.333652	õ t ọ	-0.20094405
-0.90315145	ọ b ọ	-0.37163323
-1.1368389	$ b ọ	-0.51402515
-1.0670753	ì b ọ	-0.2688863
-1.1311681	à b ọ	-0.27151394
-1.0245142	n b ọ	-0.27151394
-1.0196226	ù b ọ	-0.20094405
-1.0693513	o b ọ	-0.20094405
-1.1719987	a b ọ	-0.2978382
-1.0973009	g b ọ	-0.42445457
-1.2689449	i b ọ	-0.20094405
-1.2009217	ẹ b ọ	-0.27151394
-0.72237396	m b ọ	-0.2688863
-1.0558299	é b ọ	-0.20094405
-1.0006974	á b ọ	-0.24503821
-0.7390618	ú b ọ	-0.24503821
-0.8858683	- b ọ	-0.20094405
-0.8982216	ń b ọ	-0.20094405
-0.8982216	ḿ b ọ	-0.20094405
-1.0055491	ọ g ọ	-0.2461417
-1.8817167	$ g ọ	-0.20094405
-1.2660942	à g ọ	-0.20094405
-1.548555	n g ọ	-0.20094405
-1.558495	a g ọ	-0.20094405
-1.0604893	ú g ọ	-0.20094405
-1.7804809	r e ọ	-0.20094405
-2.0830638	b i ọ	-0.20094405
-0.98039615	ọ s ọ	-0.20094405
-1.0399175	$ s ọ	-0.63019514
-1.1209189	ì s ọ	-0.23358786
-1.1037679	à s ọ	-0.24503821
-1.2832234	n s ọ	-0.20094405
-0.92785335	ù s ọ	-0.20094405
-1.0397735	ò s ọ	-0.20094405
-1.0236577	a s ọ	-0.2688863
-0.9718505	i s ọ	-0.2688863
-1.2646888	ẹ s ọ	-0.20094405
-0.8543732	ó s ọ	-0.20094405
-1.2257195	í s ọ	-0.20094405
-0.98290175	- s ọ	-0.20094405
-0.7564491	ń s ọ	-0.20094405
-1.7362505	l u ọ	-0.20094405
-1.9555426	ṣ ẹ ọ	-0.20094405
-1.9393187	<s> l ọ	-0.20094405
-0.8722254	ọ l ọ	-0.2803862
-1.05567	$ l ọ	-0.64758825
-1.1763343	ì l ọ	-0.20094405
-1.2177403	à l ọ	-0.20094405
-0.9359555	n l ọ	-0.25213706
-0.91689914	ù l ọ	-0.20094405
-1.3938434	o l ọ	-0.20094405
-1.3600268	a l ọ	-0.20094405
-1.2409464	e l ọ	-0.20094405
-1.272991	i l ọ	-0.2688863
-1.4109251	ẹ l ọ	-0.20094405
-1.2034049	é l ọ	-0.20094405
-1.2698865	á l ọ	-0.20094405
-1.1931292	ó l ọ	-0.20094405
-0.8867785	- l ọ	-0.27151394
-0.9704547	ń l ọ	-0.20094405
-0.3360932	) l ọ	-0.20094405
-0.81261384	<s> m ọ	-0.2564527
-0.29908088	ọ m ọ	-0.3442899
-1.0768583	$ m ọ	-0.51814175
-0.4825088	ì m ọ	-0.24908046
-0.7902502	à m ọ	-0.25850493
-0.51946837	n m ọ	-0.31364128
-0.665467	ù m ọ	-0.23358786
-1.1021563	o m ọ	-0.20094405
-0.94333214	ò m ọ	-0.20094405
-0.9917525	a m ọ	-0.28602484
-0.7909531	e m ọ	-0.20094405
-0.59003234	i m ọ	-0.28797802
-0.6280776	u m ọ	-0.27151394
-0.89175975	ẹ m ọ	-0.24503821
-0.7442715	é m ọ	-0.20094405
-0.6983521	á m ọ	-0.20094405
-0.7565534	ó m ọ	-0.20094405
-0.52807355	è m ọ	-0.24503821
-0.42988536	í m ọ	-0.31364128
-0.4461235	ú m ọ	-0.25442088
-0.5912204	- m ọ	-0.2224318
-0.6664372	ń m ọ	-0.20094405
-0.30233175	/ m ọ	-0.20094405
-1.9325455	d é ọ	-0.20094405
-1.7370055	<s> k ọ	-0.27151394
-0.6876268	ọ k ọ	-0.3686824
-1.1199071	$ k ọ	-0.6616608
-1.2145889	ì k ọ	-0.2268599
-1.1988262	à k ọ	-0.20094405
-1.1869752	n k ọ	-0.20094405
-0.96612144	ù k ọ	-0.2268599
-1.3456818	o k ọ	-0.20094405
-1.2074128	ò k ọ	-0.20094405
-1.0319961	a k ọ	-0.2268599
-1.3563	i k ọ	-0.20094405
-0.8583869	u k ọ	-0.23358786
-0.57512367	ẹ k ọ	-0.5251383
-1.122457	á k ọ	-0.20094405
-1.0894943	ó k ọ	-0.20094405
-1.1974013	è k ọ	-0.20094405
-1.2298367	í k ọ	-0.20094405
-0.9443149	ú k ọ	-0.21929625
-1.2782048	- k ọ	-0.20094405
-0.83489865	ń k ọ	-0.20094405
-1.4434355	p ó ọ	-0.20094405
-1.3018532	<s> f ọ	-0.28602484
-0.86413676	ọ f ọ	-0.42277694
-1.0767738	$ f ọ	-0.41122586
-0.9499329	ì f ọ	-0.20094405
-0.87908757	à f ọ	-0.20094405
-1.0688136	a f ọ	-0.20094405
-1.1632655	i f ọ	-0.20094405
-0.95871794	ẹ f ọ	-0.24503821
-0.82916665	í f ọ	-0.20094405
-0.82916665	ń f ọ	-0.20094405
-0.053122696	<s> w ọ	-1.584145
-0.3940935	ọ w ọ	-0.43716496
-0.9020724	$ w ọ	-0.84017074
-0.98627776	ì w ọ	-0.2466945
-0.8344216	à w ọ	-0.36478502
-0.920238	n w ọ	-0.2466945
-1.2121017	o w ọ	-0.20094405
-0.6990761	a w ọ	-0.24503821
-1.064585	e w ọ	-0.20094405
-0.94188374	i w ọ	-0.28602484
-1.0076083	u w ọ	-0.20094405
-0.98939663	ẹ w ọ	-0.23358786
-0.9880529	é w ọ	-0.20094405
-0.51687586	á w ọ	-0.2918992
-1.0076083	ó w ọ	-0.20094405
-0.7041934	è w ọ	-0.20094405
-0.7430282	í w ọ	-0.2688863
-0.31825674	̣ w ọ	-0.20094405
-1.7177976	t í ọ	-0.20094405
-1.609544	b í ọ	-0.2688863
-1.0375992	l í ọ	-0.20094405
-1.1942981	p í ọ	-0.20094405
-0.54767287	ọ p ọ	-0.36842394
-1.06753	$ p ọ	-0.6180087
-1.1245011	à p ọ	-0.20094405
-0.9417003	n p ọ	-0.23358786
-1.0405251	a p ọ	-0.28602484
-1.0053004	e p ọ	-0.20094405
-1.1625315	i p ọ	-0.20094405
-1.0564529	ẹ p ọ	-0.20094405
-0.80575997	é p ọ	-0.20094405
-0.85710466	á p ọ	-0.23358786
-0.71722054	è p ọ	-0.20094405
-0.98350114	í p ọ	-0.20094405
-0.7191323	ú p ọ	-0.27151394
-0.95724094	- p ọ	-0.20094405
-0.91709656	ń p ọ	-0.20094405
-1.01878	<s> ṣ ọ	-0.2688863
-0.99986434	ọ ṣ ọ	-0.20094405
-1.2263527	$ ṣ ọ	-0.28993225
-1.200371	ì ṣ ọ	-0.20094405
-1.1109455	n ṣ ọ	-0.20094405
-0.7671691	ù ṣ ọ	-0.20094405
-0.6302135	a ṣ ọ	-0.30328956
-0.90335745	ẹ ṣ ọ	-0.23358786
-0.66342074	á ṣ ọ	-0.25442088
-0.8815992	ó ṣ ọ	-0.20094405
-0.32932785	- ṣ ọ	-0.20094405
-0.8234889	ń ṣ ọ	-0.20094405
-1.8849486	j ú ọ	-0.20094405
-1.7866974	l ú ọ	-0.20094405
-1.6631236	$ h ọ	-0.24503821
-1.1418961	ọ - ọ	-0.23358786
-1.2522185	$ - ọ	-0.20094405
-1.236208	n - ọ	-0.20094405
-1.0221455	o - ọ	-0.20094405
-0.99087816	ò - ọ	-0.20094405
-1.2200333	a - ọ	-0.20094405
-0.8832732	e - ọ	-0.20094405
-1.1379107	i - ọ	-0.20094405
-0.94802696	u - ọ	-0.20094405
-1.1418294	ẹ - ọ	-0.20094405
-1.2224787	é - ọ	-0.20094405
-0.8476238	á - ọ	-0.20094405
-1.1317055	ó - ọ	-0.20094405
-0.82950056	è - ọ	-0.20094405
-0.975575	ú - ọ	-0.2688863
-0.3317012	t ’ ọ	-0.20094405
-0.5956849	b ’ ọ	-0.20094405
-0.7376431	l ’ ọ	-0.20094405
-0.3317012	ṣ ’ ọ	-0.20094405
-1.1617153	<s> “ ọ	-0.20094405
-1.1059316	$ “ ọ	-0.24042176
-1.311666	$ ‘ ọ	-0.20094405
-1.529753	$ ( ọ	-0.20094405
-0.86727965	<s> ọ r	-1.1002607
-1.3282973	ọ ọ r	-0.20094405
-1.2820861	r ọ r	-0.27151394
-1.1554745	$ ọ r	-0.64941716
-0.33595696	ì ọ r	-0.20094405
-1.1826477	y ọ r	-0.24503821
-1.2283216	j ọ r	-0.23358786
-1.1508148	d ọ r	-0.24503821
-1.2879574	t ọ r	-0.2564527
-1.3309206	b ọ r	-0.23358786
-1.189178	g ọ r	-0.20094405
-0.9077092	s ọ r	-0.59886825
-0.33595696	ẹ ọ r	-0.20094405
-1.2280161	l ọ r	-0.26193488
-1.1830659	m ọ r	-0.23845826
-1.3068712	k ọ r	-0.23845826
-1.2192888	f ọ r	-0.20094405
-1.139591	ṣ ọ r	-0.20094405
-0.8445158	ú ọ r	-0.20094405
-1.2606443	- ọ r	-0.20094405
-0.9698759	’ ọ r	-0.20094405
-1.0786376	“ ọ r	-0.20094405
-1.5259815	e r r	-0.20094405
-1.5423743	ọ $ r	-0.3868736
-1.6592693	ì $ r	-0.25543565
-1.5372378	à $ r	-0.41849273
-1.5880938	n $ r	-0.46695775
-1.4656498	ù $ r	-0.28105873
-1.4151723	o $ r	-0.38744685
-1.6157914	ò $ r	-0.30945477
-1.4676995	a $ r	-0.42967007
-1.9147843	e $ r	-0.23756634
-1.5104566	i $ r	-0.47169954
-1.3645667	u $ r	-0.41088843
-1.4652665	ẹ $ r	-0.47742316
-1.7017757	é $ r	-0.28212017
-1.4359373	á $ r	-0.40833628
-1.4108981	ó $ r	-0.34324402
-1.4605312	è $ r	-0.39713323
-1.4364288	í $ r	-0.33495566
-1.5968919	ú $ r	-0.37163323
-1.4078068	ń $ r	-0.20094405
-1.5634214	̩ $ r	-0.27151394
-1.0042173	<s> ì r	-0.8726963
-1.2325894	$ ì r	-0.52048635
-1.2703106	à ì r	-0.20094405
-0.61503434	o ì r	-0.20094405
-1.3527085	d ì r	-0.20094405
-1.2767996	t ì r	-0.20094405
-1.1344659	b ì r	-0.20094405
-0.8647497	g ì r	-0.20094405
-1.4568954	s ì r	-0.20094405
-1.1516011	m ì r	-0.20094405
-1.3186027	- ì r	-0.20094405
-1.8161721	<s> à r	-0.28602484
-1.4823602	r à r	-0.20094405
-1.3921149	$ à r	-0.37260157
-1.3860567	y à r	-0.2688863
-1.0135971	à à r	-0.20094405
-1.3287753	j à r	-0.20094405
-1.423485	d à r	-0.20094405
-1.4483548	t à r	-0.20094405
-1.4906182	b à r	-0.20094405
-0.4806344	a à r	-0.20094405
-1.3613575	s à r	-0.20094405
-1.1397449	m à r	-0.20094405
-1.3159118	á à r	-0.20094405
-1.0669146	k à r	-0.2224318
-1.2649038	w à r	-0.20094405
-1.3102008	p à r	-0.20094405
-0.8564161	ú à r	-0.20094405
-1.3351867	- à r	-0.20094405
-1.6956478	ọ n r	-0.20094405
-1.5190846	$ n r	-0.3077881
-1.4545105	ì n r	-0.20094405
-1.6786052	à n r	-0.20094405
-1.6564174	ù n r	-0.20094405
-0.6374794	b n r	-0.20094405
-1.6931207	a n r	-0.20094405
-1.7153815	i n r	-0.24503821
-1.6075382	u n r	-0.20094405
-1.6455771	á n r	-0.20094405
-1.6430733	í n r	-0.20094405
-1.602336	ú n r	-0.20094405
-1.0559072	b ù r	-0.20094405
-0.3324346	ẹ ù r	-0.2688863
-1.4534328	k ù r	-0.20094405
-1.0576028	w ù r	-0.20094405
-0.63543046	<s> o r	-1.0156935
-1.3366944	r o r	-0.20094405
-1.1399295	$ o r	-0.76254827
-0.39362416	y o r	-0.2918992
-0.5921949	n o r	-0.20094405
-1.1601763	j o r	-0.20094405
-0.7386387	o o r	-0.25442088
-0.87227654	t o r	-0.28602484
-1.0108631	b o r	-0.24503817
-1.016609	g o r	-0.23358786
-1.268183	s o r	-0.20094405
-1.2653211	l o r	-0.2224318
-1.179175	m o r	-0.20094405
-1.2872459	k o r	-0.2268599
-0.31027675	ó o r	-0.20094405
-1.1363479	f o r	-0.20094405
-1.1886058	w o r	-0.24503821
-1.2573326	p o r	-0.20094405
-1.1310697	ṣ o r	-0.20094405
-0.68915594	h o r	-0.24503821
-1.0649229	- o r	-0.23358786
-1.0170667	“ o r	-0.20094405
-1.8257649	n d r	-0.20094405
-1.2418869	í d r	-0.20094405
-1.9165653	<s> ò r	-0.20094405
-1.3843703	r ò r	-0.2688863
-1.3037719	$ ò r	-0.4116909
-0.80023634	o ò r	-0.2978382
-1.0694498	ò ò r	-0.20094405
-1.1243454	t ò r	-0.24503821
-1.1583966	b ò r	-0.24503821
-0.8582285	s ò r	-0.20094405
-1.3824196	k ò r	-0.20094405
-0.9717524	w ò r	-0.25442088
-0.9536022	ṣ ò r	-0.2688863
-1.2105713	- ò r	-0.20094405
-1.9527671	<s> t r	-0.20094405
-1.9897549	$ t r	-0.36842394
-0.9272743	s t r	-0.20094405
-2.1454942	$ b r	-0.27151394
-1.7188627	a b r	-0.20094405
-1.3321434	e b r	-0.20094405
-1.7784665	i b r	-0.20094405
-1.2936156	<s> a r	-0.50127065
-1.4631346	r a r	-0.20094405
-1.1875744	$ a r	-0.6482523
-1.4224709	y a r	-0.20094405
-0.4789257	à a r	-0.20094405
-0.6968265	d a r	-0.42278162
-1.0779374	t a r	-0.29784814
-1.4361658	b a r	-0.2688863
-1.1556143	a a r	-0.25442088
-0.918012	g a r	-0.20094405
-0.7547586	e a r	-0.20094405
-1.3724736	s a r	-0.20094405
-0.5891087	u a r	-0.20094405
-1.1215236	l a r	-0.2224318
-0.70751643	m a r	-0.23479721
-1.01315	k a r	-0.31796095
-1.1120871	f a r	-0.2688863
-0.97261536	p a r	-0.32620984
-1.1012704	h a r	-0.24503821
-1.1542298	“ a r	-0.20094405
-0.7547586	‐ a r	-0.20094405
-1.6812961	n g r	-0.20094405
-1.7457681	o g r	-0.20094405
-0.6563736	( g r	-0.20094405
-1.6293716	<s> e r	-0.42277694
-1.2166237	r e r	-0.24503821
-1.0427198	$ e r	-0.6660809
-1.1061367	j e r	-0.20094405
-1.2358155	d e r	-0.24503821
-1.0425003	t e r	-0.20094405
-1.070455	b e r	-0.24503821
-0.9200082	g e r	-0.23358786
-1.2343857	s e r	-0.20094405
-1.2634978	l e r	-0.24503821
-0.9745291	m e r	-0.24503821
-1.1088731	k e r	-0.24503821
-1.2862539	w e r	-0.20094405
-1.2160594	p e r	-0.20094405
-1.353538	ṣ e r	-0.24503821
-0.80988616	h e r	-0.23358786
-0.89813966	v e r	-0.20094405
-0.33100733	z e r	-0.20094405
-1.083692	<s> i r	-0.6135942
-1.4931029	r i r	-0.24503821
-1.2021883	$ i r	-0.565799
-1.2195829	n i r	-0.23985618
-1.4701015	j i r	-0.20094405
-1.382427	d i r	-0.20094405
-1.4988223	t i r	-0.20094405
-1.4351603	b i r	-0.24503821
-1.2697144	a i r	-0.20094405
-0.9790901	g i r	-0.20094405
-0.9894454	i i r	-0.20094405
-1.1263568	s i r	-0.2268599
-1.1561553	m i r	-0.25442088
-1.3078126	k i r	-0.2978382
-0.7614606	í i r	-0.20094405
-0.86943215	ṣ i r	-0.2688863
-0.61272913	ú i r	-0.20094405
-1.1894577	h i r	-0.20094405
-0.86994296	- i r	-0.2268599
-1.2489846	j u r	-0.20094405
-1.1142417	d u r	-0.20094405
-1.0611336	t u r	-0.24503821
-0.73293465	b u r	-0.33563396
-0.9448525	k u r	-0.20094405
-0.90698934	f u r	-0.2688863
-0.987692	w u r	-0.20094405
-0.91264814	p u r	-0.20094405
-0.4776132	ú u r	-0.20094405
-0.8326843	h u r	-0.42277694
-1.218326	<s> ẹ r	-0.41711512
-1.1831293	r ẹ r	-0.2688863
-1.0861416	$ ẹ r	-0.776255
-1.3819891	y ẹ r	-0.20094405
-1.3940563	j ẹ r	-0.2268599
-0.7550304	d ẹ r	-0.27151394
-1.2566888	t ẹ r	-0.23358786
-1.0099574	b ẹ r	-0.42278305
-1.1454393	g ẹ r	-0.20094405
-1.3658243	s ẹ r	-0.20094405
-1.1626585	ẹ ẹ r	-0.2688863
-1.4254766	l ẹ r	-0.20094405
-0.7311974	m ẹ r	-0.43921643
-0.77726877	k ẹ r	-0.5574827
-1.2998819	f ẹ r	-0.2268599
-0.9912126	w ẹ r	-0.2688863
-1.0390998	p ẹ r	-0.36842394
-1.4656887	ṣ ẹ r	-0.20094405
-0.33700004	h ẹ r	-0.20094405
-0.8890188	- ẹ r	-0.20094405
-1.333127	y é r	-0.20094405
-1.267571	j é r	-0.20094405
-1.3950701	d é r	-0.20094405
-0.5987474	t é r	-0.2268599
-1.2241482	b é r	-0.20094405
-1.0085946	e é r	-0.20094405
-1.0881069	l é r	-0.34904706
-0.91442114	m é r	-0.20094405
-0.969885	k é r	-0.27151394
-1.0672379	è é r	-0.20094405
-0.8151848	f é r	-0.20094405
-1.1543279	w é r	-0.24503821
-0.99157023	p é r	-0.20094405
-0.59153104	h é r	-0.20094405
-1.4018399	r á r	-0.20094405
-1.4665855	$ á r	-0.20094405
-1.3617394	y á r	-0.20094405
-1.1737382	à á r	-0.25213706
-1.2265182	j á r	-0.2688863
-1.2106566	d á r	-0.31796095
-1.3657852	b á r	-0.24503821
-0.7853131	s á r	-0.2706363
-1.2685993	l á r	-0.25213706
-1.0890343	m á r	-0.20094405
-1.0176576	á á r	-0.20094405
-1.2513468	k á r	-0.2268599
-0.8708196	f á r	-0.2688863
-1.4088057	p á r	-0.20094405
-1.1097977	ṣ á r	-0.20094405
-0.47717127	’ á r	-0.20094405
-2.6891506	$ k r	-0.20094405
-1.4392512	r ó r	-0.20094405
-1.4689448	d ó r	-0.20094405
-1.1359477	ò ó r	-0.20094405
-1.5083003	t ó r	-0.20094405
-1.2482117	b ó r	-0.20094405
-1.0326734	g ó r	-0.2688863
-1.2398983	s ó r	-0.20094405
-0.92157954	l ó r	-0.32200804
-1.3413458	k ó r	-0.27151394
-1.1255058	<s> è r	-0.28602484
-1.0154572	$ è r	-0.5658699
-1.0849634	j è r	-0.20094405
-0.95253265	b è r	-0.23479721
-1.1951962	s è r	-0.20094405
-1.361661	l è r	-0.20094405
-0.3258287	m è r	-0.20094405
-0.9284059	é è r	-0.20094405
-0.88224393	k è r	-0.27151394
-0.8500986	è è r	-0.23358786
-0.56749666	f è r	-0.2688863
-0.9284059	w è r	-0.20094405
-1.2074448	p è r	-0.20094405
-1.0174541	- è r	-0.20094405
-1.3016312	a f r	-0.20094405
-0.3647515	… f r	-0.20094405
-1.3457172	r í r	-0.2137087
-1.0610257	ì í r	-0.20094405
-1.2810714	y í r	-0.20094405
-1.4259684	n í r	-0.20094405
-0.9635371	j í r	-0.23358786
-1.0936607	d í r	-0.24503821
-1.4676253	b í r	-0.20094405
-0.5791453	g í r	-0.23358786
-1.0279704	m í r	-0.24503821
-0.8383961	á í r	-0.20094405
-1.2733432	k í r	-0.20094405
-1.1936129	f í r	-0.20094405
-0.60000867	í í r	-0.20094405
-0.9442673	ṣ í r	-0.24503821
-2.283936	$ p r	-0.2688863
-0.9793983	$ ú r	-0.20094405
-1.4149517	j ú r	-0.20094405
-0.8264012	ù ú r	-0.20094405
-0.7080891	d ú r	-0.4467275
-1.2649484	t ú r	-0.20094405
-0.58396554	b ú r	-0.31796095
-1.3483145	l ú r	-0.20094405
-0.9783293	m ú r	-0.33563396
-1.036007	k ú r	-0.259969
-1.0201584	f ú r	-0.20094405
-0.60709924	w ú r	-0.24503821
-1.012645	ṣ ú r	-0.20094405
-1.3395877	à - r	-0.20094405
-1.1250341	o - r	-0.20094405
-1.3858368	a - r	-0.20094405
-1.4379191	i - r	-0.20094405
-1.2760454	ẹ - r	-0.2688863
-1.3789481	á - r	-0.20094405
-1.2662455	ó - r	-0.20094405
-1.219298	í - r	-0.20094405
-1.3687584	$ c r	-0.20094405
-0.76587975	o c r	-0.20094405
-1.2437531	$ ń r	-0.2918992
-1.7321537	$ “ r	-0.20094405
-1.529753	$ ( r	-0.20094405
-0.33711833	g ã r	-0.20094405
-1.3283576	o ̩ r	-0.20094405
-1.0016239	ò ̩ r	-0.2688863
-1.2563579	e ̩ r	-0.20094405
-1.3881214	ó ̩ r	-0.20094405
-1.153264	è ̩ r	-0.20094405
-0.7009381	ọ ọ $	-0.23756634
-0.46406996	r ọ $	-0.40649042
-1.6880249	$ ọ $	-0.22877155
-0.41381657	y ọ $	-0.34773448
-0.5852958	n ọ $	-0.20094405
-0.61057776	j ọ $	-0.51051134
-0.80272967	d ọ $	-0.21929625
-0.62445635	t ọ $	-0.37594846
-0.5437105	b ọ $	-0.41718614
-0.5688375	g ọ $	-0.21155506
-0.6174823	s ọ $	-0.2749073
-0.78598315	l ọ $	-0.3462993
-0.72279435	m ọ $	-0.5390742
-0.68085605	k ọ $	-0.50109804
-0.77997756	f ọ $	-0.24577352
-0.61107904	w ọ $	-0.40542912
-0.44190162	p ọ $	-0.4314493
-0.8626827	ṣ ọ $	-0.24901041
-0.607175	h ọ $	-0.20094405
-1.2781774	- ọ $	-0.20094405
-2.3135607	$ r $	-0.20094405
-1.9463383	o r $	-0.20094405
-1.9629939	a r $	-0.20094405
-1.3835186	e r $	-0.23358786
-0.7096577	r ì $	-0.2366809
-1.7552967	$ ì $	-0.20094405
-0.7060886	y ì $	-0.23537591
-1.0981314	à ì $	-0.20094405
-0.69684935	n ì $	-0.2137087
-0.4920283	j ì $	-0.3153386
-0.568107	o ì $	-0.20094405
-0.62894386	d ì $	-0.23358786
-0.49310774	t ì $	-0.24409024
-0.6694023	b ì $	-0.23991188
-0.31646767	a ì $	-0.20094405
-0.78456235	g ì $	-0.20094405
-0.6218106	s ì $	-0.27465066
-0.7893837	m ì $	-0.20094405
-0.97766536	á ì $	-0.20094405
-0.68208396	k ì $	-0.23727097
-0.98199564	f ì $	-0.20094405
-0.6266158	w ì $	-0.20094405
-0.6266158	í ì $	-0.20094405
-0.76735616	ṣ ì $	-0.21695933
-0.33124894	r y $	-0.20094405
-1.1247288	n y $	-0.2688863
-0.35270876	d y $	-0.20094405
-1.2920306	e y $	-0.20094405
-0.35270876	l y $	-0.20094405
-0.35270876	m y $	-0.20094405
-1.513161	<s> à $	-0.26193488
-0.68410647	r à $	-0.2913432
-1.3490131	$ à $	-0.33821714
-0.5792824	ì à $	-0.20094405
-0.5662207	y à $	-0.34390432
-0.93919414	à à $	-0.20094405
-0.4349199	n à $	-0.3198531
-0.4451543	j à $	-0.3976753
-0.6049008	d à $	-0.25850213
-0.5714402	t à $	-0.23054732
-0.6346115	b à $	-0.2927108
-0.77751327	g à $	-0.20094405
-0.32269293	i à $	-0.20094405
-0.76998794	s à $	-0.22443897
-0.32269293	u à $	-0.20094405
-0.6223069	l à $	-0.3052395
-1.0404137	m à $	-0.20094405
-0.75137216	á à $	-0.2512513
-0.74354017	k à $	-0.30479303
-0.7631619	f à $	-0.24397658
-0.476928	w à $	-0.3749311
-0.5842408	í à $	-0.24276343
-1.0324254	p à $	-0.20094405
-0.49373853	ṣ à $	-0.3233351
-0.80311406	ú à $	-0.20094405
-0.87044686	h à $	-0.20094405
-0.80311406	̩ à $	-0.20094405
-0.99877316	ọ n $	-0.32483009
-0.9441005	r n $	-0.20094405
-1.2941141	$ n $	-0.3182508
-0.80535996	ì n $	-0.34315717
-0.8505448	à n $	-0.5350337
-0.7787506	ù n $	-0.47900873
-0.7595691	o n $	-0.23135735
-0.98049664	ò n $	-0.20094405
-0.914446	a n $	-0.4840225
-1.2767699	e n $	-0.20094405
-0.8420122	i n $	-0.62999064
-0.57946444	u n $	-0.66843057
-1.6403952	ẹ n $	-0.20094405
-0.753835	á n $	-0.38386413
-1.0152588	ó n $	-0.20094405
-0.7158183	í n $	-0.26978314
-0.61814725	ú n $	-0.5669372
-1.0347301	̩ n $	-0.23275279
-2.4984663	$ j $	-0.20094405
-0.6331517	r ù $	-0.2521724
-0.39816913	n ù $	-0.2441743
-0.47505066	j ù $	-0.24224022
-0.9761091	d ù $	-0.21929625
-0.5927863	t ù $	-0.22578666
-0.92846566	b ù $	-0.20094405
-0.93699056	s ù $	-0.2224318
-0.5667342	l ù $	-0.28549242
-0.28391376	m ù $	-0.2107295
-0.54770327	k ù $	-0.3315406
-0.51377416	f ù $	-0.21695933
-0.7631798	w ù $	-0.21515042
-0.60929394	ṣ ù $	-0.22945455
-0.7718678	ú ù $	-0.20094405
-0.880918	h ù $	-0.2268599
-0.2935972	̩ ù $	-0.20094405
-1.31245	<s> o $	-0.24140431
-0.69435674	r o $	-0.28118482
-1.2538654	$ o $	-0.4503489
-1.1744571	j o $	-0.20094405
-0.61654884	d o $	-0.23892374
-1.0543078	t o $	-0.20094405
-0.61524385	b o $	-0.26735282
-0.47063756	a o $	-0.20094405
-0.5986885	g o $	-0.22733575
-0.74137306	i o $	-0.20727947
-0.5920875	s o $	-0.26909235
-0.6737881	l o $	-0.27322683
-1.0082806	m o $	-0.24736492
-0.4492795	k o $	-0.37637123
-0.7107636	f o $	-0.25379187
-0.40176374	w o $	-0.35612112
-0.43226796	p o $	-0.23399062
-0.918119	ṣ o $	-0.20094405
-0.9862014	h o $	-0.20094405
-0.9000643	̩ o $	-0.20094405
-0.35477126	r d $	-0.20094405
-1.5775732	n d $	-0.20094405
-1.2384351	o d $	-0.20094405
-1.6461121	a d $	-0.20094405
-1.0558448	e d $	-0.20094405
-1.5086061	i d $	-0.20094405
-0.35477126	l d $	-0.20094405
-0.54059005	r ò $	-0.39668667
-1.0886608	$ ò $	-0.4097314
-0.6639123	j ò $	-0.2763076
-0.44412267	d ò $	-0.2568715
-0.9842034	ò ò $	-0.20094405
-0.6644371	t ò $	-0.24545169
-0.7061679	b ò $	-0.30192026
-0.5073204	g ò $	-0.21515042
-0.46492612	l ò $	-0.30502388
-0.7498263	m ò $	-0.20094405
-0.5401491	k ò $	-0.39717412
-0.9164401	ó ò $	-0.20094405
-0.45835513	f ò $	-0.21515042
-0.50362426	w ò $	-0.28399146
-0.32276872	í ò $	-0.20094405
-0.5153019	p ò $	-0.26985377
-1.0673991	ṣ ò $	-0.20094405
-0.57941926	h ò $	-0.20094405
-0.82562864	r t $	-0.20094405
-1.3316247	e t $	-0.20094405
-1.1041877	u t $	-0.20094405
-2.4125364	$ b $	-0.20094405
-2.313214	g b $	-0.20094405
-1.7990317	i b $	-0.20094405
-0.3110024	<s> a $	-0.77499247
-0.6771788	r a $	-0.5115952
-1.1086344	$ a $	-0.6834109
-0.5871868	y a $	-0.2561702
-0.7344215	à a $	-0.20094405
-0.5522513	n a $	-0.31833082
-0.6409466	j a $	-0.268563
-0.683091	d a $	-0.26183257
-0.682972	t a $	-0.37821317
-0.68064404	b a $	-0.45836347
-0.5799487	a a $	-0.2758031
-0.50936794	g a $	-0.28912762
-0.50696796	i a $	-0.26178956
-0.6490181	s a $	-0.20094405
-0.8260825	u a $	-0.20094405
-0.94170713	l a $	-0.3146395
-1.0007722	m a $	-0.21155506
-0.7671783	á a $	-0.21439102
-0.55109394	k a $	-0.2815483
-0.49569005	f a $	-0.25817153
-0.37334484	w a $	-0.3359143
-0.64283985	p a $	-0.4058773
-0.3719914	ṣ a $	-0.22983725
-1.2250345	h a $	-0.20094405
-1.0148259	c a $	-0.20094405
-0.8620364	“ a $	-0.27151394
-1.7543044	o g $	-0.20094405
-1.3643783	e g $	-0.20094405
-0.4243176	r e $	-0.3456233
-1.303163	$ e $	-0.24586552
-0.42859954	y e $	-0.3104158
-0.90765136	n e $	-0.20094405
-0.5391923	j e $	-0.22918826
-0.4916641	d e $	-0.37725386
-0.746562	t e $	-0.20094405
-1.015719	b e $	-0.22243173
-0.6168099	g e $	-0.21695933
-1.0005476	e e $	-0.20094405
-0.8610767	i e $	-0.20094405
-0.32571825	s e $	-0.26690534
-0.55267173	l e $	-0.34111264
-1.0767119	m e $	-0.20094405
-0.32048094	é e $	-0.20094405
-0.6843856	k e $	-0.22321711
-0.26821476	w e $	-0.2640462
-0.67190737	p e $	-0.26958576
-0.4298001	ṣ e $	-0.4624041
-1.0105681	h e $	-0.20094405
-0.6347181	v e $	-0.20094405
-0.9984552	̩ e $	-0.20094405
-1.9029409	<s> i $	-0.20094405
-0.71764606	r i $	-0.45906723
-1.7002063	$ i $	-0.26318353
-0.6302802	y i $	-0.39042002
-0.72742325	n i $	-0.5774329
-0.6030924	j i $	-0.36077917
-0.67220545	d i $	-0.3173646
-0.5465506	t i $	-0.57514113
-0.5263517	b i $	-0.62197673
-0.8174794	a i $	-0.25449064
-0.89332116	g i $	-0.21155506
-0.9695757	i i $	-0.20094405
-0.52918386	s i $	-0.36414406
-0.7311388	l i $	-0.21155506
-0.52236444	m i $	-0.37800497
-0.7160632	k i $	-0.35061523
-0.4195963	f i $	-0.30337548
-0.61064583	w i $	-0.24042176
-0.74959654	í i $	-0.20094405
-1.0868286	p i $	-0.2688863
-0.8580078	ṣ i $	-0.23940638
-2.1235564	$ s $	-0.20094405
-0.3543979	y s $	-0.20094405
-1.3217645	o s $	-0.20094405
-0.63832235	s s $	-0.20094405
-1.2961471	u s $	-0.20094405
-0.33279142	m s $	-0.23358786
-0.3543979	p s $	-0.20094405
-0.5435418	r u $	-0.30117363
-1.0493222	$ u $	-0.20094405
-0.40269452	n u $	-0.367257
-0.5996008	j u $	-0.23511125
-0.30821654	ù u $	-0.20094405
-0.72681254	d u $	-0.26193488
-0.9498616	t u $	-0.21002321
-0.67521983	b u $	-0.2268599
-0.30821654	e u $	-0.20094405
-0.96016276	s u $	-0.20094405
-0.34258023	l u $	-0.32839158
-0.4451294	m u $	-0.28082022
-0.7164782	k u $	-0.27160692
-0.643336	w u $	-0.23358792
-0.30821654	í u $	-0.20094405
-0.34226933	ṣ u $	-0.24409024
-0.68396294	ú u $	-0.20094405
-0.964564	h u $	-0.23358786
-0.40628347	<s> ẹ $	-0.7668278
-0.32892638	ọ ẹ $	-0.20094405
-0.6623637	r ẹ $	-0.42912963
-1.0505506	$ ẹ $	-0.45971656
-0.5906026	ì ẹ $	-0.20094405
-0.5894071	y ẹ $	-0.32515144
-0.5828024	j ẹ $	-0.49027705
-0.9299992	d ẹ $	-0.26262507
-0.77112854	t ẹ $	-0.282966
-0.6588381	b ẹ $	-0.48747742
-0.86064434	g ẹ $	-0.21515042
-0.6520236	i ẹ $	-0.20094405
-0.31616074	s ẹ $	-0.29042315
-0.7812088	ẹ ẹ $	-0.22023448
-0.757339	l ẹ $	-0.52689445
-1.2929167	m ẹ $	-0.20094405
-0.760054	k ẹ $	-0.29476908
-0.5551094	f ẹ $	-0.37786418
-0.6906305	w ẹ $	-0.2180483
-0.82223743	í ẹ $	-0.20094405
-0.55317557	p ẹ $	-0.3562651
-0.63203365	ṣ ẹ $	-0.40889913
-0.8906304	“ ẹ $	-0.20094405
-0.7306117	( ẹ $	-0.20094405
-1.6539727	o l $	-0.20094405
-1.7595727	a l $	-0.20094405
-1.3736746	e l $	-0.2268599
-1.6819944	i l $	-0.20094405
-1.6546127	ẹ l $	-0.20094405
-0.92481387	l l $	-0.20094405
-1.4523842	o m $	-0.20094405
-1.4122788	a m $	-0.21695933
-1.5432793	i m $	-0.20094405
-0.46177018	<s> é $	-0.24503821
-0.6387897	r é $	-0.26766092
-0.39013264	$ é $	-0.20941196
-0.48973668	y é $	-0.3249322
-0.48506987	j é $	-0.23243509
-0.59302914	d é $	-0.48207146
-0.83342373	t é $	-0.21929625
-0.8382881	b é $	-0.20913622
-0.7583	g é $	-0.20094405
-0.7553319	e é $	-0.20094405
-0.690843	s é $	-0.20094405
-0.6518458	l é $	-0.58195287
-1.0186658	m é $	-0.20094405
-0.6910038	é é $	-0.20094405
-0.7260159	k é $	-0.22749451
-0.82170975	è é $	-0.20094405
-0.40991914	w é $	-0.44422543
-0.55852085	p é $	-0.2792672
-0.40243143	ṣ é $	-0.2366809
-0.30006042	<s> á $	-0.20094405
-0.97008616	r á $	-0.2701859
-0.34789157	$ á $	-0.59886897
-0.31867272	ì á $	-0.20094405
-0.63333946	y á $	-0.29279476
-0.5379172	à á $	-0.22983725
-0.37413585	n á $	-0.346159
-0.6805726	j á $	-0.28112978
-0.69017255	d á $	-0.3542409
-1.022678	t á $	-0.20094405
-0.59417874	b á $	-0.4553905
-0.85213935	a á $	-0.20094405
-0.9564962	g á $	-0.20094405
-1.0796502	s á $	-0.22443897
-0.8194997	l á $	-0.36324638
-0.9503695	m á $	-0.2069757
-0.83355147	k á $	-0.24577352
-0.8120211	f á $	-0.20094405
-0.5703581	w á $	-0.29218262
-0.5720509	í á $	-0.20094405
-0.53217053	p á $	-0.28333083
-1.0122569	ṣ á $	-0.20094405
-0.63105804	h á $	-0.20094405
-0.5720509	- á $	-0.20094405
-2.3880918	<s> k $	-0.20094405
-0.36180484	r k $	-0.20094405
-1.6488918	o k $	-0.20094405
-1.7413064	i k $	-0.20094405
-0.6526781	c k $	-0.20094405
-0.011442675	<s> ó $	-0.7260063
-0.6024336	r ó $	-0.295677
-0.15053543	$ ó $	-0.7803551
-0.72987026	y ó $	-0.20094405
-0.52551043	à ó $	-0.20094405
-0.46583173	j ó $	-0.24586552
-0.39563355	d ó $	-0.25385076
-0.6143876	ò ó $	-0.2137087
-0.55837643	t ó $	-0.2891347
-0.73645926	b ó $	-0.27036384
-0.63363594	g ó $	-0.2224318
-0.30077434	e ó $	-0.20094405
-0.97708756	s ó $	-0.20094405
-0.9505869	l ó $	-0.22339055
-0.92159563	m ó $	-0.20094405
-0.30077434	á ó $	-0.20094405
-0.6671907	k ó $	-0.31893855
-0.4291166	ó ó $	-0.20094405
-0.7971528	f ó $	-0.20094405
-0.6054614	w ó $	-0.370128
-0.30077434	í ó $	-0.20094405
-0.51346666	p ó $	-0.2268599
-0.64959025	ṣ ó $	-0.20094405
-0.30077434	h ó $	-0.20094405
-0.30077434	( ó $	-0.20094405
-0.5085656	r è $	-0.25077024
-1.7061169	$ è $	-0.20094405
-0.37366194	y è $	-0.3296462
-0.30409735	d è $	-0.2560569
-0.6888988	t è $	-0.20094405
-0.9170207	b è $	-0.21844493
-0.9530019	g è $	-0.20094405
-0.4387528	s è $	-0.25269285
-0.6482732	l è $	-0.34508467
-0.6872719	é è $	-0.20094405
-0.74218583	k è $	-0.25725204
-0.87893844	è è $	-0.20094405
-0.7906188	f è $	-0.20094405
-0.6872719	w è $	-0.20094405
-0.5615499	p è $	-0.26052105
-0.6400526	ṣ è $	-0.20094405
-1.0119717	o f $	-0.20094405
-0.6267335	e f $	-0.20094405
-0.92552793	u f $	-0.20094405
-1.5766793	a w $	-0.20094405
-1.4532524	e w $	-0.20094405
-0.6387175	r í $	-0.46078393
-0.25504515	$ í $	-0.24792814
-0.34464428	ì í $	-0.283265
-0.54264694	y í $	-0.3063072
-0.6876224	à í $	-0.20094405
-0.7235651	n í $	-0.40098244
-0.92114466	j í $	-0.20094405
-0.8415578	d í $	-0.22074059
-0.26841986	t í $	-0.4315133
-0.6558132	b í $	-0.51073116
-0.3113659	e í $	-0.20094405
-0.5912969	s í $	-0.33305407
-0.84362227	l í $	-0.2688863
-0.5792543	m í $	-0.24397658
-0.7438704	k í $	-0.24865845
-0.86269647	f í $	-0.23358786
-0.7232683	w í $	-0.23358786
-0.5590419	í í $	-0.20094405
-0.9265825	p í $	-0.20094405
-0.80428493	ṣ í $	-0.2268599
-0.6876224	h í $	-0.20094405
-0.5590419	̩ í $	-0.20094405
-0.9227603	o p $	-0.20094405
-1.4220234	i p $	-0.20094405
-0.6461891	s p $	-0.20094405
-0.6461891	m p $	-0.20094405
-0.69877183	ọ ú $	-0.20094405
-0.5061859	r ú $	-0.34904325
-0.721658	$ ú $	-0.20094405
-0.41461325	n ú $	-0.3788859
-0.53071845	j ú $	-0.4639004
-0.7789852	ù ú $	-0.20094405
-1.1016096	d ú $	-0.23483436
-1.0404015	t ú $	-0.21155506
-0.6617895	b ú $	-0.24706072
-0.9379413	s ú $	-0.20094405
-0.59240377	l ú $	-0.40182376
-0.7342938	m ú $	-0.25750265
-0.4614154	k ú $	-0.4521882
-0.9050847	f ú $	-0.2268599
-0.887578	w ú $	-0.22074059
-0.6965587	ṣ ú $	-0.20094405
-0.90484416	t h $	-0.24503821
-1.069274	a h $	-0.20094405
-0.6250128	g h $	-0.20094405
-1.178891	c h $	-0.20094405
-0.28601354	$ - $	-0.24586552
-1.6307151	n - $	-0.20094405
-1.1204848	ò - $	-0.20094405
-1.2693007	í - $	-0.20094405
-0.35680592	: - $	-0.20094405
-0.3530968	g c $	-0.20094405
-0.32269308	e v $	-0.20094405
-0.7119835	e z $	-0.20094405
-0.10489634	n ί $	-0.20094405
-0.10489634	b ί $	-0.20094405
-0.10489634	s ί $	-0.20094405
-0.17279102	l ὸ $	-0.20094405
-0.5227665	à ! $	-0.20094405
-0.5227665	o ! $	-0.20094405
-0.80893016	$ ń $	-0.5538871
-0.08552943	$ – $	-0.42803535
-0.31468087	a ǹ $	-0.20094405
-0.036341812	ọ ; $	-0.20094405
-0.036341812	à ; $	-0.20094405
-0.029519688	n ; $	-0.20094405
-0.036341812	ù ; $	-0.20094405
-0.036341812	o ; $	-0.20094405
-0.034811802	a ; $	-0.20094405
-0.039823003	e ; $	-0.20094405
-0.036341812	i ; $	-0.20094405
-0.036341812	u ; $	-0.20094405
-0.036341812	m ; $	-0.20094405
-0.039823003	ó ; $	-0.24503821
-0.036341812	í ; $	-0.20094405
-0.034811802	ú ; $	-0.20094405
-0.034811802	̩ ; $	-0.20094405
-0.30307874	̣ ̣ $	-0.20094405
-0.18019253	ọ : $	-0.20094405
-0.09887693	r : $	-0.20094405
-0.09887693	n : $	-0.20094405
-0.09887693	a : $	-0.20094405
-0.23345678	e : $	-0.20094405
-0.16985315	i : $	-0.2466945
-0.10915431	ẹ : $	-0.2268599
-0.10915431	é : $	-0.23358786
-0.09887693	á : $	-0.20094405
-0.09441016	ó : $	-0.20094405
-0.09441016	í : $	-0.20094405
-0.23599456	” : $	-0.20094405
-0.24688284	ọ ’ $	-0.20094405
-0.26112413	ì ’ $	-0.20094405
-0.47377628	n ’ $	-0.20094405
-0.26112413	ò ’ $	-0.20094405
-0.47377628	é ’ $	-0.20094405
-0.26112413	ó ’ $	-0.20094405
-0.6386391	í ’ $	-0.20094405
-0.26112413	ú ’ $	-0.20094405
-0.3779639	’ ’ $	-0.20094405
-0.47377628	… ’ $	-0.20094405
-0.47728148	ọ ” $	-0.20094405
-0.23786545	$ ” $	-0.20094405
-0.14752956	y ” $	-0.20094405
-0.23201288	à ” $	-0.20094405
-0.17617136	n ” $	-0.22519405
-0.41132948	ù ” $	-0.20094405
-0.11677619	o ” $	-0.20094405
-0.23786545	ò ” $	-0.2224318
-0.23110801	a ” $	-0.21929625
-0.32077807	e ” $	-0.20094405
-0.32841867	i ” $	-0.2268599
-0.14752956	u ” $	-0.20094405
-0.34255084	ẹ ” $	-0.20094405
-0.35059506	é ” $	-0.20094405
-0.14752956	á ” $	-0.20094405
-0.28253043	ó ” $	-0.20094405
-0.30121782	è ” $	-0.20094405
-0.14752956	í ” $	-0.20094405
-0.30122575	ú ” $	-0.20094405
-0.14752956	? ” $	-0.20094405
-0.2921291	d / $	-0.20094405
-0.2921291	b / $	-0.20094405
-0.5255745	a / $	-0.20094405
-0.2921291	e / $	-0.20094405
-0.6431961	ẹ / $	-0.20094405
-0.25517377	$ & $	-0.20094405
-0.17279102	n " $	-0.20094405
-0.4643011	1 8 $	-0.20094405
-0.4943569	8 0 $	-0.20094405
-0.4004693	1 6 $	-0.20094405
-0.2147507	2 6 $	-0.20094405
-0.2147507	7 6 $	-0.20094405
-0.29963106	<s> 9 $	-0.20094405
-0.29963106	3 9 $	-0.20094405
-0.5237262	1 4 $	-0.20094405
-0.2315566	2 4 $	-0.20094405
-0.42651653	9 4 $	-0.20094405
-0.33963862	ó ‘ $	-0.20094405
-0.25517377	y ị $	-0.20094405
-0.09675782	ọ ) $	-0.20094405
-0.10134918	y ) $	-0.20094405
-0.17296635	à ) $	-0.20094405
-0.2392505	n ) $	-0.20094405
-0.09675782	o ) $	-0.20094405
-0.10134918	ò ) $	-0.20094405
-0.10134918	t ) $	-0.20094405
-0.09675782	a ) $	-0.20094405
-0.18309489	i ) $	-0.2688863
-0.2392505	ẹ ) $	-0.20094405
-0.10134918	á ) $	-0.20094405
-0.10134918	ó ) $	-0.20094405
-0.10134918	è ) $	-0.20094405
-0.10134918	p ) $	-0.20094405
-0.10134918	ú ) $	-0.20094405
-0.17033516	0 ) $	-0.24503821
-0.10134918	7 ) $	-0.20094405
-0.17279102	ì * $	-0.20094405
-0.54737383	n ? $	-0.20094405
-0.74634147	ẹ ̃ $	-0.20094405
-0.245387	n ã $	-0.20094405
-0.4483834	m ã $	-0.20094405
-0.245387	f ã $	-0.20094405
-0.6189653	o ̩ $	-0.2620519
-0.6005114	ò ̩ $	-0.2918145
-0.8590393	e ̩ $	-0.23216432
-0.5436944	é ̩ $	-0.2930973
-0.7295238	ó ̩ $	-0.30251163
-0.8048066	è ̩ $	-0.26381782
-1.7187667	$ r ì	-0.27151394
-1.2079288	ì r ì	-0.20094405
-1.3096192	à r ì	-0.27151394
-1.2679433	n r ì	-0.2688863
-1.6989806	o r ì	-0.20094405
-1.4219213	ò r ì	-0.20094405
-1.6125271	i r ì	-0.20094405
-1.5430905	ẹ r ì	-0.20094405
-1.4844651	é r ì	-0.20094405
-1.510844	á r ì	-0.20094405
-1.5179231	è r ì	-0.20094405
-1.4849418	í r ì	-0.20094405
-1.2528006	̩ r ì	-0.20094405
-1.4238437	ọ $ ì	-0.53391993
-1.8845552	ì $ ì	-0.20094405
-1.5534809	à $ ì	-0.3145895
-1.416481	n $ ì	-0.58672726
-1.6798788	ù $ ì	-0.25442088
-1.5202017	o $ ì	-0.2846563
-1.3127618	d $ ì	-0.20094405
-1.5802691	ò $ ì	-0.2726269
-1.5085618	a $ ì	-0.41673204
-1.4551904	e $ ì	-0.3507968
-1.521488	i $ ì	-0.6097537
-1.4978788	u $ ì	-0.2590409
-1.5430154	ẹ $ ì	-0.4284201
-1.3335184	l $ ì	-0.20094405
-1.4364965	é $ ì	-0.43124783
-1.4888408	á $ ì	-0.32798633
-1.0514009	k $ ì	-0.20094405
-1.7284042	ó $ ì	-0.24276343
-1.5520936	è $ ì	-0.24224022
-1.4528006	í $ ì	-0.44345486
-1.500845	ú $ ì	-0.37372226
-1.0514009	h $ ì	-0.20094405
-1.2748743	- $ ì	-0.20094405
-0.637685	! $ ì	-0.20094405
-1.4166659	– $ ì	-0.20094405
-1.0056001	; $ ì	-0.23358786
-1.5271921	: $ ì	-0.20094405
-1.7212094	” $ ì	-0.20094405
-1.310762	̩ $ ì	-0.27444708
-1.3782223	m ì ì	-0.20094405
-0.9981011	$ y ì	-0.83623636
-1.20177	à y ì	-0.20094405
-0.9463198	n y ì	-0.24503821
-0.68565786	ò y ì	-0.27151394
-1.3402863	a y ì	-0.20094405
-1.1105384	i y ì	-0.42277694
-0.5907459	u y ì	-0.20094405
-0.6292526	ẹ y ì	-0.665815
-0.7714279	é y ì	-0.24503821
-1.2957737	á y ì	-0.20094405
-0.9501616	ó y ì	-0.2688863
-0.89991957	è y ì	-0.20094405
-0.9647874	í y ì	-0.20094405
-0.63394284	̩ y ì	-0.20094405
-1.9441671	<s> à ì	-0.2564527
-1.3162739	$ à ì	-0.47812378
-1.4432783	n à ì	-0.20094405
-1.5868132	s à ì	-0.20094405
-1.6125559	ṣ à ì	-0.20094405
-1.3209941	- à ì	-0.20094405
-2.7764187	<s> n ì	-0.20094405
-1.7234325	ọ n ì	-0.20094405
-1.399359	$ n ì	-0.47140115
-1.6821649	ì n ì	-0.20094405
-1.5779333	à n ì	-0.20094405
-1.4626355	o n ì	-0.20094405
-1.4830528	ẹ n ì	-0.24503821
-1.3141531	ó n ì	-0.20094405
-0.8898667	è n ì	-0.23358786
-1.1003824	̩ n ì	-0.23358786
-0.64063746	‐ n ì	-0.20094405
-0.8874292	<s> j ì	-0.2688863
-1.2904352	$ j ì	-0.44707838
-1.1628013	ì j ì	-0.24503821
-1.2009133	n j ì	-0.20094405
-1.1499673	ò j ì	-0.20094405
-1.3868443	a j ì	-0.20094405
-1.1202792	e j ì	-0.2268599
-1.3624092	i j ì	-0.20094405
-1.3726405	ẹ j ì	-0.20094405
-0.9196164	é j ì	-0.2224318
-1.2823099	á j ì	-0.20094405
-1.0488127	ó j ì	-0.20094405
-0.8966372	è j ì	-0.2688863
-0.98595214	í j ì	-0.20094405
-1.6544552	t o ì	-0.20094405
-1.8802233	k o ì	-0.20094405
-1.3744326	ọ d ì	-0.24503821
-1.3972995	$ d ì	-0.25543565
-1.3482463	ì d ì	-0.20094405
-1.2892681	à d ì	-0.20094405
-1.3416517	ò d ì	-0.20094405
-1.3319601	a d ì	-0.23358786
-1.3485354	ẹ d ì	-0.20094405
-1.238619	é d ì	-0.20094405
-1.2667294	á d ì	-0.20094405
-1.1241281	ó d ì	-0.20094405
-1.2232393	è d ì	-0.20094405
-1.0901293	í d ì	-0.20094405
-1.8676022	$ t ì	-0.2224318
-1.1887276	ì t ì	-0.24503821
-1.5282587	à t ì	-0.20094405
-1.2220078	ẹ t ì	-0.2978382
-1.17813	ó t ì	-0.20094405
-1.2092346	è t ì	-0.20094405
-1.0842417	í t ì	-0.20094405
-0.9836217	ú t ì	-0.20094405
-1.6014208	ọ b ì	-0.20094405
-2.0584984	$ b ì	-0.20094405
-1.2061623	ì b ì	-0.20094405
-0.87731194	o b ì	-0.29041728
-1.1513855	ò b ì	-0.20094405
-1.6145144	g b ì	-0.31796095
-1.4537699	i b ì	-0.24503821
-1.2239664	- b ì	-0.20094405
-2.1387465	b a ì	-0.20094405
-1.320194	ò g ì	-0.24503821
-1.6980635	ẹ g ì	-0.20094405
-1.4976536	ó g ì	-0.20094405
-1.1716034	ọ s ì	-0.2688863
-0.59642285	r s ì	-0.20094405
-1.1467874	$ s ì	-0.7385329
-1.0815817	ì s ì	-0.2688863
-1.0126973	à s ì	-0.2978382
-1.0976061	n s ì	-0.24503821
-1.1758674	ò s ì	-0.20094405
-1.1311073	e s ì	-0.20094405
-1.2751579	i s ì	-0.20094405
-1.1304165	u s ì	-0.20094405
-0.85169744	ẹ s ì	-0.28260097
-1.0581094	é s ì	-0.20094405
-1.0817895	á s ì	-0.20094405
-0.77126044	è s ì	-0.36842394
-1.174203	í s ì	-0.20094405
-1.125364	ú s ì	-0.20094405
-0.8410496	̩ s ì	-0.2978382
-1.959413	ṣ ẹ ì	-0.20094405
-1.3712491	$ m ì	-0.5716663
-1.4899716	à m ì	-0.20094405
-0.9479831	ò m ì	-0.23358786
-1.1250741	á m ì	-0.20094405
-1.2065024	ó m ì	-0.20094405
-1.8192556	l á ì	-0.23358792
-1.5808094	<s> k ì	-0.2706363
-1.3257356	$ k ì	-0.6163712
-1.2497029	ì k ì	-0.24503821
-1.4588526	à k ì	-0.20094405
-1.4074867	n k ì	-0.20094405
-1.3347969	ò k ì	-0.2688863
-1.4521366	a k ì	-0.20094405
-1.4788779	i k ì	-0.20094405
-1.364344	á k ì	-0.20094405
-1.3250048	ó k ì	-0.20094405
-1.1012869	è k ì	-0.2688863
-1.3317832	í k ì	-0.20094405
-1.0556725	“ k ì	-0.20094405
-0.6200305	 k ì	-0.20094405
-1.7524292	<s> f ì	-0.2688863
-1.3733361	ọ f ì	-0.20094405
-1.5028356	$ f ì	-0.3652061
-1.2421733	ì f ì	-0.20094405
-1.1862894	ò f ì	-0.25442088
-0.8860487	ó f ì	-0.20094405
-1.5398952	à w ì	-0.20094405
-1.3590121	ò w ì	-0.20094405
-1.4050936	e w ì	-0.20094405
-1.2382303	é w ì	-0.20094405
-1.5154786	y í ì	-0.20094405
-1.7700958	n í ì	-0.20094405
-1.6861455	t í ì	-0.20094405
-1.7200505	s í ì	-0.20094405
-1.3994467	m í ì	-0.20094405
-2.370817	$ p ì	-0.20094405
-1.2372775	ì p ì	-0.2688863
-1.4134876	n p ì	-0.20094405
-1.8513389	$ ṣ ì	-0.27151394
-1.4565989	à ṣ ì	-0.20094405
-1.2900428	n ṣ ì	-0.20094405
-0.7703066	ò ṣ ì	-0.28260097
-1.3423214	í ṣ ì	-0.20094405
-0.9992271	ò h ì	-0.20094405
-0.48314744	ẹ h ì	-0.723807
-0.80474436	í h ì	-0.20094405
-1.2373796	ọ - ì	-0.2268599
-1.1382778	n - ì	-0.20094405
-1.1583183	e - ì	-0.20094405
-1.3782848	i - ì	-0.20094405
-1.3827451	ẹ - ì	-0.20094405
-1.1302392	é - ì	-0.20094405
-1.1570883	á - ì	-0.20094405
-1.2248346	ó - ì	-0.20094405
-0.9639683	í - ì	-0.20094405
-1.039465	ú - ì	-0.20094405
-1.3487421	<s> “ ì	-0.20094405
-1.4435475	$ “ ì	-0.23358786
-0.77386916	ẹ / ì	-0.20094405
-0.345569	á / ì	-0.20094405
-1.1375401	$ ‘ ì	-0.2688863
-1.5397636	$ ( ì	-0.20094405
-1.3992039	s ̩ ì	-0.20094405
-0.72172594	n ‐ ì	-0.20094405
-0.72172594	ò ‐ ì	-0.20094405
-1.0134608	̩ ‐ ì	-0.20094405
-1.465478	$ ọ y	-0.36792582
-1.5935585	y ọ y	-0.20094405
-1.7680691	j ọ y	-0.20094405
-1.5687691	b ọ y	-0.20094405
-1.6906879	s ọ y	-0.20094405
-1.7625943	l ọ y	-0.20094405
-1.506804	m ọ y	-0.27151394
-1.8377757	k ọ y	-0.20094405
-1.2341858	- ọ y	-0.2978382
-0.6662324	r r y	-0.20094405
-1.8591479	a r y	-0.2688863
-1.4598752	ọ $ y	-0.5262596
-1.469296	ì $ y	-0.2564527
-1.4875275	à $ y	-0.52678645
-1.5275719	n $ y	-0.46115792
-1.5122051	ù $ y	-0.33758307
-1.3657905	o $ y	-0.3581581
-1.5314307	ò $ y	-0.32270995
-1.4300026	a $ y	-0.48515424
-1.4640784	e $ y	-0.42278415
-1.496672	i $ y	-0.5323785
-1.66365	u $ y	-0.33563396
-1.4831882	ẹ $ y	-0.4396144
-1.1997992	m $ y	-0.20094405
-1.4915842	é $ y	-0.50768083
-1.5386441	á $ y	-0.3217888
-1.4370722	ó $ y	-0.37408358
-1.5663606	è $ y	-0.28597653
-0.6411725	w $ y	-0.20094405
-1.4199011	í $ y	-0.37418875
-1.1591926	p $ y	-0.20094405
-1.5705718	ú $ y	-0.41916546
-1.368702	ń $ y	-0.20094405
-1.4380658	– $ y	-0.20094405
-1.3187628	’ $ y	-0.20094405
-1.6104884	” $ y	-0.20094405
-1.3218844	̩ $ y	-0.2706363
-0.82679695	<s> ì y	-0.7934463
-1.1292776	$ ì y	-0.69064325
-1.2712518	à ì y	-0.20094405
-0.89219415	n ì y	-0.27151394
-1.3242469	j ì y	-0.2688863
-1.182457	d ì y	-0.2688863
-1.3144494	b ì y	-0.20094405
-1.1756772	- ì y	-0.2688863
-0.61525494	/ ì y	-0.20094405
-0.34224802	‘ ì y	-0.20094405
-0.34224802	( ì y	-0.20094405
-1.4037269	<s> à y	-0.38493043
-0.3414787	ọ à y	-0.20094405
-1.397035	$ à y	-0.50136435
-1.5417845	y à y	-0.20094405
-1.022449	à à y	-0.2688863
-1.497118	j à y	-0.20094405
-1.5103145	b à y	-0.20094405
-1.376927	s à y	-0.20094405
-1.30328	l à y	-0.20094405
-1.3325609	á à y	-0.20094405
-1.5462937	k à y	-0.20094405
-1.2663143	f à y	-0.20094405
-1.4244127	w à y	-0.20094405
-1.328054	p à y	-0.20094405
-1.409399	ṣ à y	-0.20094405
-1.3509467	- à y	-0.20094405
-0.99203163	“ à y	-0.20094405
-1.7224567	ọ n y	-0.20094405
-1.893807	$ n y	-0.28602484
-1.6812482	ì n y	-0.20094405
-1.486227	n n y	-0.20094405
-1.6433766	o n y	-0.20094405
-1.2789031	ò n y	-0.20094405
-1.8404869	a n y	-0.20094405
-1.5198649	á n y	-0.24503821
-1.6690022	í n y	-0.20094405
-1.7592949	ú n y	-0.20094405
-1.3867949	̩ n y	-0.20094405
-1.7393769	l ù y	-0.20094405
-1.4710561	r o y	-0.2688863
-1.3464429	$ o y	-0.6520011
-1.3766869	b o y	-0.20094405
-1.7201949	l o y	-0.20094405
-1.4822628	m o y	-0.20094405
-1.5526087	- o y	-0.20094405
-1.3031849	u d y	-0.20094405
-1.1093143	r ò y	-0.2706363
-1.3878652	$ ò y	-0.5740446
-1.4049749	j ò y	-0.20094405
-0.8854075	ò ò y	-0.20094405
-1.6616904	k ò y	-0.20094405
-1.5124537	w ò y	-0.20094405
-1.0877116	- ò y	-0.24503821
-1.7972647	i t y	-0.20094405
-1.8861117	<s> a y	-0.27151394
-1.5524589	r a y	-0.20094405
-1.2569665	$ a y	-0.62437236
-0.98171085	j a y	-0.2268599
-1.6150235	t a y	-0.20094405
-1.5303185	b a y	-0.21929625
-1.2106451	a a y	-0.2978382
-1.2828828	l a y	-0.2268599
-1.0733095	á a y	-0.20094405
-0.34792832	í a y	-0.20094405
-1.5123382	p a y	-0.20094405
-1.1767157	- a y	-0.20094405
-1.221867	“ a y	-0.20094405
-0.7802237	‘ a y	-0.20094405
-0.7802237	‐ a y	-0.20094405
-1.4106326	e g y	-0.20094405
-0.6048958	<s> e y	-1.3889186
-0.9804077	$ e y	-0.9247264
-1.2476811	b e y	-0.20094405
-1.7206688	l e y	-0.20094405
-1.7771769	ṣ e y	-0.20094405
-1.2167603	̩ e y	-0.20094405
-1.8655005	<s> i y	-0.20094405
-1.1854924	$ i y	-0.68217045
-1.2449888	n i y	-0.26413175
-1.328732	j i y	-0.2564527
-0.34582806	o i y	-0.20094405
-1.4237382	d i y	-0.20094405
-1.3823633	t i y	-0.20094405
-1.1808892	b i y	-0.2461417
-1.1248839	a i y	-0.24503821
-0.34582806	e i y	-0.20094405
-1.0118316	i i y	-0.20094405
-0.774564	u i y	-0.20094405
-0.34582806	ẹ i y	-0.20094405
-1.3943518	k i y	-0.20094405
-1.4546226	ṣ i y	-0.20094405
-0.774564	‘ i y	-0.20094405
-1.4936818	j u y	-0.20094405
-1.5741439	b u y	-0.20094405
-1.574683	<s> ẹ y	-0.23985618
-1.2555618	$ ẹ y	-0.6408511
-1.2876151	y ẹ y	-0.24503821
-1.6963291	b ẹ y	-0.20094405
-1.4665287	s ẹ y	-0.20094405
-1.4379268	ẹ ẹ y	-0.20094405
-1.371104	l ẹ y	-0.27151394
-1.5082375	m ẹ y	-0.20094405
-1.1893321	k ẹ y	-0.2564527
-1.5714797	f ẹ y	-0.20094405
-1.363618	p ẹ y	-0.2688863
-1.6178285	ṣ ẹ y	-0.20094405
-2.004862	a l y	-0.20094405
-0.64348376	m m y	-0.2688863
-0.87856233	<s> é y	-0.20094405
-1.5791619	d é y	-0.20094405
-1.3895943	b é y	-0.20094405
-1.1058462	s é y	-0.20094405
-1.615427	l é y	-0.2688863
-1.2140467	m é y	-0.20094405
-1.4510726	k é y	-0.20094405
-1.2882403	p é y	-0.20094405
-1.307777	r á y	-0.20094405
-1.5237895	$ á y	-0.20094405
-1.4242581	à á y	-0.20094405
-1.2209235	j á y	-0.2978382
-1.4346452	d á y	-0.2688863
-1.2746253	b á y	-0.2466945
-0.94416714	a á y	-0.20094405
-1.382963	s á y	-0.20094405
-1.22323	l á y	-0.3088397
-1.1261854	m á y	-0.2688863
-1.3460039	k á y	-0.20094405
-1.1986837	w á y	-0.24503821
-0.7707511	’ á y	-0.20094405
-1.6166315	t ó y	-0.20094405
-1.3160216	b ó y	-0.20094405
-0.99149436	s ó y	-0.24503821
-1.498469	l ó y	-0.2461417
-1.6341658	k ó y	-0.20094405
-1.5862248	w ó y	-0.20094405
-0.77431554	<s> è y	-0.5610797
-1.0548221	$ è y	-0.7486352
-1.4857851	y è y	-0.20094405
-1.1555647	b è y	-0.2688863
-1.4672462	l è y	-0.20094405
-1.2597469	è è y	-0.20094405
-1.5029535	r í y	-0.20094405
-1.3957816	y í y	-0.20094405
-0.77957565	à í y	-0.20094405
-1.2865175	n í y	-0.36842394
-1.405959	d í y	-0.20094405
-1.4705666	b í y	-0.20094405
-1.3024114	m í y	-0.20094405
-1.2379457	k í y	-0.2688863
-1.1406481	w í y	-0.20094405
-1.1517365	s ú y	-0.20094405
-1.6161356	l ú y	-0.20094405
-1.2971927	m ú y	-0.2978382
-1.3733953	f ú y	-0.20094405
-1.3589233	w ú y	-0.20094405
-1.4291599	i - y	-0.20094405
-1.6920515	ẹ - y	-0.20094405
-0.92092514	a c y	-0.20094405
-1.4225549	$ ń y	-0.24503821
-0.8775892	i / y	-0.20094405
-0.62122035	ó / y	-0.20094405
-1.536401	$ ( y	-0.20094405
-1.4601415	o ̩ y	-0.20094405
-1.4034936	e ̩ y	-0.20094405
-1.3917798	é ̩ y	-0.20094405
-1.3904941	ó ̩ y	-0.20094405
-1.3620145	è ̩ y	-0.20094405
-0.64229673	i ‐ y	-0.20094405
-2.1708958	k ọ à	-0.20094405
-1.2933116	ọ r à	-0.27151394
-1.1490637	$ r à	-0.3442899
-1.2245489	ì r à	-0.2688863
-1.3115338	à r à	-0.23358786
-0.8924856	ù r à	-0.24503821
-1.3676343	ò r à	-0.20094405
-1.5014166	a r à	-0.20094405
-1.4315679	i r à	-0.23358786
-1.1669189	u r à	-0.2688863
-1.6310403	ẹ r à	-0.20094405
-1.431369	é r à	-0.20094405
-1.4495226	á r à	-0.20094405
-0.9147242	í r à	-0.2706363
-0.97211164	ú r à	-0.24503821
-1.1139579	- r à	-0.20094405
-1.2098786	̩ r à	-0.20094405
-1.4175054	ọ $ à	-0.547812
-1.1733212	r $ à	-0.20094405
-1.3368198	ì $ à	-0.47405544
-1.3852496	à $ à	-0.54407614
-1.4737506	n $ à	-0.56755525
-1.3099875	ù $ à	-0.45318797
-1.352781	o $ à	-0.36767155
-1.3735956	ò $ à	-0.38490778
-0.7915871	b $ à	-0.20094405
-1.4192322	a $ à	-0.4800375
-1.3351958	e $ à	-0.40642297
-1.5470933	i $ à	-0.61576897
-1.2907536	u $ à	-0.39043975
-1.4699255	ẹ $ à	-0.45025772
-0.92357033	m $ à	-0.2688863
-1.3499013	é $ à	-0.43121082
-1.3776414	á $ à	-0.4377979
-1.0416614	k $ à	-0.20094405
-1.3419607	ó $ à	-0.39912847
-1.3666002	è $ à	-0.33110213
-1.4433377	í $ à	-0.4171911
-1.4398924	ú $ à	-0.4097314
-1.3944068	– $ à	-0.20094405
-1.2062821	; $ à	-0.20094405
-0.78743917	: $ à	-0.21929625
-1.287004	’ $ à	-0.20094405
-1.5164853	” $ à	-0.20094405
-0.3520934	" $ à	-0.20094405
-0.63390225	8 $ à	-0.20094405
-0.63390225	0 $ à	-0.20094405
-1.2944674	) $ à	-0.20094405
-1.2989142	̩ $ à	-0.361038
-1.6313539	n ì à	-0.20094405
-1.3588983	<s> y à	-0.514552
-0.93303317	ọ y à	-0.20094405
-1.0574647	$ y à	-0.5665709
-0.6675095	ì y à	-0.30397078
-0.7590387	à y à	-0.36478502
-1.0792651	n y à	-0.20094405
-0.845692	ò y à	-0.20094405
-1.1601017	a y à	-0.2688863
-1.0583501	e y à	-0.20094405
-0.8103579	i y à	-0.3502324
-1.0751834	ẹ y à	-0.2978382
-0.972961	é y à	-0.20094405
-1.0917339	á y à	-0.24503821
-0.90152705	ó y à	-0.2688863
-0.79702634	è y à	-0.2978382
-0.8607022	í y à	-0.2224318
-0.31655863	( y à	-0.20094405
-0.8813764	̩ y à	-0.20094405
-2.279317	<s> à à	-0.2688863
-1.6723067	r à à	-0.20094405
-1.6338289	$ à à	-0.3254472
-1.6277012	d à à	-0.20094405
-1.6307285	l à à	-0.20094405
-1.2718407	m à à	-0.20094405
-1.4134218	f à à	-0.20094405
-1.3209165	p à à	-0.2688863
-2.5141437	<s> n à	-0.2688863
-0.90539134	ọ n à	-0.39645267
-1.3207939	$ n à	-0.58814627
-1.4914005	ì n à	-0.20094405
-1.5354598	à n à	-0.20094405
-1.450416	n n à	-0.20094405
-1.6328859	ù n à	-0.20094405
-1.652581	i n à	-0.24503821
-1.7039987	ẹ n à	-0.20094405
-0.35232437	m n à	-0.20094405
-1.134225	è n à	-0.20094405
-1.4836822	í n à	-0.24503821
-1.0815743	̩ n à	-0.25442088
-0.91556984	ọ j à	-0.43215287
-1.2172942	$ j à	-0.6146713
-1.179038	ì j à	-0.25442088
-0.8978846	à j à	-0.25018948
-1.3426362	n j à	-0.20094405
-1.4545829	o j à	-0.20094405
-1.2567837	a j à	-0.24503821
-1.2226367	i j à	-0.2466945
-1.1857202	ẹ j à	-0.2978382
-0.9302545	á j à	-0.27151394
-0.905496	è j à	-0.20094405
-0.99696237	í j à	-0.23358786
-0.8485069	ń j à	-0.20094405
-1.4622126	g ù à	-0.20094405
-1.1678708	ọ d à	-0.2564527
-1.1037174	$ d à	-0.5232281
-1.1395178	ì d à	-0.23358786
-1.1891682	à d à	-0.2268599
-1.3660513	n d à	-0.20094405
-1.2607014	o d à	-0.20094405
-1.2851572	ò d à	-0.20094405
-1.3246813	a d à	-0.20094405
-1.3422967	i d à	-0.20094405
-1.2821717	ẹ d à	-0.20094405
-1.1857364	é d à	-0.20094405
-1.0821223	ó d à	-0.20094405
-0.8302622	í d à	-0.2688863
-0.8465823	ú d à	-0.20094405
-0.91668093	ń d à	-0.20094405
-1.6006904	d ò à	-0.20094405
-1.4870642	<s> t à	-0.2688863
-1.3188553	ọ t à	-0.20094405
-1.0609381	$ t à	-0.6816084
-0.90715015	ì t à	-0.2466945
-0.8726517	à t à	-0.2224318
-1.2854421	n t à	-0.20094405
-0.91612643	ù t à	-0.20094405
-1.3361531	a t à	-0.20094405
-0.88182795	i t à	-0.28602484
-0.80638385	ẹ t à	-0.2688863
-1.1230328	é t à	-0.20094405
-1.0082525	á t à	-0.2268599
-1.000411	í t à	-0.2688863
-0.603403	ǹ t à	-0.20094405
-0.960792	̩ t à	-0.20094405
-1.2340937	<s> b à	-0.815582
-1.3709656	ọ b à	-0.20094405
-1.0616862	$ b à	-0.6500247
-1.0547076	ì b à	-0.2607906
-1.1174994	à b à	-0.20094405
-1.2054358	n b à	-0.20094405
-0.80402905	ù b à	-0.2688863
-1.2984039	a b à	-0.20094405
-1.0617976	g b à	-0.45886558
-1.0713658	i b à	-0.33563396
-1.2341981	ẹ b à	-0.24503821
-1.1484178	m b à	-0.20094405
-1.0438149	é b à	-0.20094405
-0.8148459	è b à	-0.20094405
-1.1796402	í b à	-0.20094405
-1.0061226	ú b à	-0.20094405
-1.0684876	- b à	-0.20094405
-0.8896762	ń b à	-0.20094405
-0.8260808	“ b à	-0.20094405
-2.0822985	$ a à	-0.27151394
-1.6604248	g a à	-0.20094405
-1.3307996	ì g à	-0.20094405
-1.468728	à g à	-0.20094405
-1.3265836	n g à	-0.24503821
-1.5484656	ẹ g à	-0.20094405
-1.116018	á g à	-0.2688863
-1.0451444	ú g à	-0.20094405
-0.9659632	̩ g à	-0.20094405
-2.179681	r i à	-0.20094405
-1.2790903	ọ s à	-0.20094405
-1.6688368	$ s à	-0.23985618
-0.90598106	ì s à	-0.25442088
-1.1620252	à s à	-0.20094405
-1.29525	ò s à	-0.20094405
-1.2081734	i s à	-0.23358786
-1.5429589	ẹ s à	-0.20094405
-1.045418	í s à	-0.24503821
-1.2420044	ú s à	-0.20094405
-1.1970875	̩ s à	-0.20094405
-1.6686381	d u à	-0.20094405
-1.9517062	ṣ ẹ à	-0.20094405
-1.3385848	ọ l à	-0.33563396
-1.2557437	$ l à	-0.47492722
-1.2801424	ì l à	-0.20094405
-0.6647416	à l à	-0.30840194
-1.3957518	n l à	-0.20094405
-1.4774117	a l à	-0.20094405
-1.5714545	i l à	-0.24503821
-1.5421888	ẹ l à	-0.20094405
-0.8710581	á l à	-0.2466945
-1.0898415	ó l à	-0.20094405
-1.0402458	ú l à	-0.2688863
-1.6684922	$ m à	-0.31364128
-1.2266743	ì m à	-0.20094405
-1.2666435	à m à	-0.20094405
-1.1633699	ù m à	-0.20094405
-1.2036986	ó m à	-0.20094405
-1.400019	$ á à	-0.20094405
-1.4817557	y á à	-0.20094405
-1.3812685	n á à	-0.23358786
-1.5000784	d á à	-0.2688863
-1.5251625	b á à	-0.20094405
-1.0937526	g á à	-0.20094405
-1.5061862	l á à	-0.21515042
-1.3596177	m á à	-0.20094405
-1.5508069	k á à	-0.20094405
-1.5335187	p á à	-0.20094405
-1.5554562	<s> k à	-0.4476052
-0.8020221	ọ k à	-0.43750292
-1.2771099	$ k à	-0.62369645
-1.034684	ì k à	-0.259969
-1.0683317	à k à	-0.22983725
-1.1699394	n k à	-0.24503821
-1.3760543	o k à	-0.20094405
-1.4008551	ò k à	-0.20094405
-1.2549449	a k à	-0.2688863
-1.1117953	i k à	-0.3652061
-0.6609109	á k à	-0.23358786
-1.2525634	ó k à	-0.20094405
-1.2245762	è k à	-0.20094405
-1.0637372	í k à	-0.24503821
-1.1516421	ú k à	-0.20094405
-1.3066406	- k à	-0.20094405
-0.7861424	“ k à	-0.20094405
-0.8327991	̩ k à	-0.2688863
-1.1644936	ọ f à	-0.2688863
-1.2493491	$ f à	-0.3722649
-1.1452565	à f à	-0.20094405
-0.9098631	n f à	-0.2268599
